{"learner":{"attributes":{"best_iteration":"48","best_score":"0.3797443970328286"},"feature_names":["P1Ace","P2Ace","P1Winner","P2Winner","momentum_p1"],"feature_types":["int","int","int","int","float"],"gradient_booster":{"model":{"gbtree_model_param":{"num_parallel_tree":"1","num_trees":"59"},"iteration_indptr":[0,1,2,3,4,5,6,7,8,9,10,11,12,13,14,15,16,17,18,19,20,21,22,23,24,25,26,27,28,29,30,31,32,33,34,35,36,37,38,39,40,41,42,43,44,45,46,47,48,49,50,51,52,53,54,55,56,57,58,59],"tree_info":[0,0,0,0,0,0,0,0,0,0,0,0,0,0,0,0,0,0,0,0,0,0,0,0,0,0,0,0,0,0,0,0,0,0,0,0,0,0,0,0,0,0,0,0,0,0,0,0,0,0,0,0,0,0,0,0,0,0,0],"trees":[{"base_weights":[-2.456373E-8,3.4305048E-1,-1.9088843E-1,-1.3892436E-1,6.836544E-1,3.3507097E-1,1.3604482E-1,-2.0343676E-1,4.817964E-1,1.3468474E-2,-4.8524093E-2,6.2423104E-1,-2.7778734E-2,4.115472E-2,1.0197152E-1],"categories":[],"categories_nodes":[],"categories_segments":[],"categories_sizes":[],"default_left":[0,0,0,0,0,0,0,0,0,0,0,0,0,0,0],"id":0,"left_children":[1,3,-1,-1,5,7,-1,9,11,-1,-1,13,-1,-1,-1],"loss_changes":[1.6544827E1,1.3586056E1,0E0,0E0,3.9246244E0,1.1711869E0,0E0,4.0946442E-1,1.3603506E0,0E0,0E0,3.8331938E-1,0E0,0E0,0E0],"parents":[2147483647,0,0,1,1,4,4,5,5,7,7,8,8,11,11],"right_children":[2,4,-1,-1,6,8,-1,10,12,-1,-1,14,-1,-1,-1],"split_conditions":[1E0,1.2253499E-1,-1.9088843E-1,-1.3892436E-1,1E0,1.2828085E-1,1.3604482E-1,1.2516765E-1,3.827748E-1,1.3468474E-2,-4.8524093E-2,2.4931593E-1,-2.7778734E-2,4.115472E-2,1.0197152E-1],"split_indices":[3,4,0,0,2,4,0,4,4,0,0,4,0,0,0],"split_type":[0,0,0,0,0,0,0,0,0,0,0,0,0,0,0],"sum_hessian":[2.3265306E1,2.0416492E1,2.848813E0,2.848813E0,1.756768E1,1.2582257E1,4.9854226E0,2.6114118E0,9.970845E0,1.4244065E0,1.1870054E0,8.546439E0,1.4244065E0,6.8846316E0,1.6618075E0],"tree_param":{"num_deleted":"0","num_feature":"5","num_nodes":"15","size_leaf_vector":"1"}},{"base_weights":[-3.4162528E-3,3.1606E-1,-1.7207767E-1,-1.2598556E-1,6.3673466E-1,3.0983558E-1,1.2857231E-1,-1.9228353E-1,4.4849843E-1,1.2701223E-2,-4.561938E-2,5.837382E-1,-2.6048755E-2,3.7895665E-2,9.7201146E-2],"categories":[],"categories_nodes":[],"categories_segments":[],"categories_sizes":[],"default_left":[0,0,0,0,0,0,0,0,0,0,0,0,0,0,0],"id":1,"left_children":[1,3,-1,-1,5,7,-1,9,11,-1,-1,13,-1,-1,-1],"loss_changes":[1.3809728E1,1.1531528E1,0E0,0E0,3.4852686E0,1.02557E0,0E0,3.6293066E-1,1.1944847E0,0E0,0E0,3.8214087E-1,0E0,0E0,0E0],"parents":[2147483647,0,0,1,1,4,4,5,5,7,7,8,8,11,11],"right_children":[2,4,-1,-1,6,8,-1,10,12,-1,-1,14,-1,-1,-1],"split_conditions":[1E0,1.2253499E-1,-1.7207767E-1,-1.2598556E-1,1E0,1.2828085E-1,1.2857231E-1,1.2516765E-1,3.827748E-1,1.2701223E-2,-4.561938E-2,2.4931593E-1,-2.6048755E-2,3.7895665E-2,9.7201146E-2],"split_indices":[3,4,0,0,2,4,0,4,4,0,0,4,0,0,0],"split_type":[0,0,0,0,0,0,0,0,0,0,0,0,0,0,0],"sum_hessian":[2.3178835E1,2.0231232E1,2.9476035E0,2.9254937E0,1.7305738E1,1.2491242E1,4.814495E0,2.6193786E0,9.871864E0,1.4200451E0,1.1993334E0,8.43881E0,1.4330537E0,6.8185844E0,1.6202258E0],"tree_param":{"num_deleted":"0","num_feature":"5","num_nodes":"15","size_leaf_vector":"1"}},{"base_weights":[-6.008789E-3,2.9239267E-1,-1.5728833E-1,-1.1513437E-1,5.945005E-1,2.8683296E-1,1.2217565E-1,-1.8176192E-1,4.1796356E-1,1.19778775E-2,-4.2916518E-2,5.4644924E-1,-2.443328E-2,3.489657E-2,9.28954E-2],"categories":[],"categories_nodes":[],"categories_segments":[],"categories_sizes":[],"default_left":[0,0,0,0,0,0,0,0,0,0,0,0,0,0,0],"id":2,"left_children":[1,3,-1,-1,5,7,-1,9,11,-1,-1,13,-1,-1,-1],"loss_changes":[1.1673115E1,9.839174E0,0E0,0E0,3.1265087E0,8.9901793E-1,0E0,3.218844E-1,1.0498915E0,0E0,0E0,3.8045335E-1,0E0,0E0,0E0],"parents":[2147483647,0,0,1,1,4,4,5,5,7,7,8,8,11,11],"right_children":[2,4,-1,-1,6,8,-1,10,12,-1,-1,14,-1,-1,-1],"split_conditions":[1E0,1.2253499E-1,-1.5728833E-1,-1.1513437E-1,1E0,1.2828085E-1,1.2217565E-1,1.2516765E-1,3.827748E-1,1.19778775E-2,-4.2916518E-2,2.4931593E-1,-2.443328E-2,3.489657E-2,9.28954E-2],"split_indices":[3,4,0,0,2,4,0,4,4,0,0,4,0,0,0],"split_type":[0,0,0,0,0,0,0,0,0,0,0,0,0,0,0],"sum_hessian":[2.2982533E1,1.998912E1,2.993412E0,2.972564E0,1.7016556E1,1.239441E1,4.6221457E0,2.6256266E0,9.768784E0,1.4158331E0,1.2097936E0,8.328055E0,1.4407278E0,6.7535696E0,1.5744863E0],"tree_param":{"num_deleted":"0","num_feature":"5","num_nodes":"15","size_leaf_vector":"1"}},{"base_weights":[-7.985033E-3,2.7142984E-1,-1.453492E-1,-1.0586746E-1,5.561799E-1,2.6581725E-1,1.1661436E-1,-1.7183451E-1,3.8988462E-1,1.1295882E-2,-4.0397342E-2,5.119996E-1,-2.2923646E-2,3.2133367E-2,8.8979535E-2],"categories":[],"categories_nodes":[],"categories_segments":[],"categories_sizes":[],"default_left":[0,0,0,0,0,0,0,0,0,0,0,0,0,0,0],"id":3,"left_children":[1,3,-1,-1,5,7,-1,9,11,-1,-1,13,-1,-1,-1],"loss_changes":[9.968181E0,8.431264E0,0E0,0E0,2.8267727E0,7.8884256E-1,0E0,2.8564203E-1,9.2358935E-1,0E0,0E0,3.7794662E-1,0E0,0E0,0E0],"parents":[2147483647,0,0,1,1,4,4,5,5,7,7,8,8,11,11],"right_children":[2,4,-1,-1,6,8,-1,10,12,-1,-1,14,-1,-1,-1],"split_conditions":[1E0,1.2253499E-1,-1.453492E-1,-1.0586746E-1,1E0,1.2828085E-1,1.1661436E-1,1.2516765E-1,3.827748E-1,1.1295882E-2,-4.0397342E-2,2.4931593E-1,-2.2923646E-2,3.2133367E-2,8.8979535E-2],"split_indices":[3,4,0,0,2,4,0,4,4,0,0,4,0,0,0],"split_type":[0,0,0,0,0,0,0,0,0,0,0,0,0,0,0],"sum_hessian":[2.2703268E1,1.9706291E1,2.9969783E0,2.9955904E0,1.6710701E1,1.22941E1,4.4166007E0,2.6303704E0,9.663729E0,1.4117739E0,1.2185966E0,8.216194E0,1.4475344E0,6.6902885E0,1.5259061E0],"tree_param":{"num_deleted":"0","num_feature":"5","num_nodes":"15","size_leaf_vector":"1"}},{"base_weights":[-9.484529E-3,2.527062E-1,-1.3549337E-1,-9.782923E-2,5.211811E-1,2.4658097E-1,1.1171173E-1,-1.624656E-1,3.6400566E-1,1.0652819E-2,-3.8045768E-2,4.8008925E-1,-2.1511989E-2,2.9585386E-2,8.539386E-2],"categories":[],"categories_nodes":[],"categories_segments":[],"categories_sizes":[],"default_left":[0,0,0,0,0,0,0,0,0,0,0,0,0,0,0],"id":4,"left_children":[1,3,-1,-1,5,7,-1,9,11,-1,-1,13,-1,-1,-1],"loss_changes":[8.584141E0,7.250517E0,0E0,0E0,2.571363E0,6.9278765E-1,0E0,2.5361037E-1,8.130846E-1,0E0,0E0,3.744645E-1,0E0,0E0,0E0],"parents":[2147483647,0,0,1,1,4,4,5,5,7,7,8,8,11,11],"right_children":[2,4,-1,-1,6,8,-1,10,12,-1,-1,14,-1,-1,-1],"split_conditions":[1E0,1.2253499E-1,-1.3549337E-1,-9.782923E-2,1E0,1.2828085E-1,1.1171173E-1,1.2516765E-1,3.827748E-1,1.0652819E-2,-3.8045768E-2,2.4931593E-1,-2.1511989E-2,2.9585386E-2,8.539386E-2],"split_indices":[3,4,0,0,2,4,0,4,4,0,0,4,0,0,0],"split_type":[0,0,0,0,0,0,0,0,0,0,0,0,0,0,0],"sum_hessian":[2.2363312E1,1.9395786E1,2.967524E0,2.999363E0,1.6396423E1,1.2192185E1,4.2042394E0,2.633805E0,9.55838E0,1.4078695E0,1.2259357E0,8.104811E0,1.4535692E0,6.6292467E0,1.4755639E0],"tree_param":{"num_deleted":"0","num_feature":"5","num_nodes":"15","size_leaf_vector":"1"}},{"base_weights":[-1.0605285E-2,2.3586524E-1,-1.271997E-1,-9.076276E-2,4.890437E-1,2.2894649E-1,1.07335165E-1,-1.5362237E-1,3.401106E-1,1.0046412E-2,-3.584767E-2,4.5046785E-1,-2.019118E-2,2.7234549E-2,8.209037E-2],"categories":[],"categories_nodes":[],"categories_segments":[],"categories_sizes":[],"default_left":[0,0,0,0,0,0,0,0,0,0,0,0,0,0,0],"id":5,"left_children":[1,3,-1,-1,5,7,-1,9,11,-1,-1,13,-1,-1,-1],"loss_changes":[7.444669E0,6.2537236E0,0E0,0E0,2.3500404E0,6.0894555E-1,0E0,2.2527596E-1,7.162751E-1,0E0,0E0,3.6995518E-1,0E0,0E0,0E0],"parents":[2147483647,0,0,1,1,4,4,5,5,7,7,8,8,11,11],"right_children":[2,4,-1,-1,6,8,-1,10,12,-1,-1,14,-1,-1,-1],"split_conditions":[1E0,1.2253499E-1,-1.271997E-1,-9.076276E-2,1E0,1.2828085E-1,1.07335165E-1,1.2516765E-1,3.827748E-1,1.0046412E-2,-3.584767E-2,2.4931593E-1,-2.019118E-2,2.7234549E-2,8.209037E-2],"split_indices":[3,4,0,0,2,4,0,4,4,0,0,4,0,0,0],"split_type":[0,0,0,0,0,0,0,0,0,0,0,0,0,0,0],"sum_hessian":[2.1980843E1,1.906804E1,2.9128015E0,2.987939E0,1.6080103E1,1.2090151E1,3.9899514E0,2.6361063E0,9.454044E0,1.40412E0,1.2319862E0,7.995127E0,1.4589173E0,6.5707936E0,1.4243338E0],"tree_param":{"num_deleted":"0","num_feature":"5","num_nodes":"15","size_leaf_vector":"1"}},{"base_weights":[-1.1417402E-2,-2.765252E-1,1.03383385E-1,-3.6714677E-2,-1.2010292E-1,-8.4478445E-2,2.1276139E-1,-1.4527306E-1,3.1801578E-1,9.474584E-3,-3.3790436E-2,4.2292538E-1,-1.895471E-2,2.506499E-2,7.903012E-2],"categories":[],"categories_nodes":[],"categories_segments":[],"categories_sizes":[],"default_left":[0,0,0,0,0,0,0,0,0,0,0,0,0,0,0],"id":6,"left_children":[1,3,-1,5,-1,-1,7,9,11,-1,-1,13,-1,-1,-1],"loss_changes":[6.5402746E0,4.122445E0,0E0,3.3959446E0,0E0,0E0,5.356916E-1,2.0019227E-1,6.313752E-1,0E0,0E0,3.644358E-1,0E0,0E0,0E0],"parents":[2147483647,0,0,1,1,3,3,6,6,7,7,8,8,11,11],"right_children":[2,4,-1,6,-1,-1,8,10,12,-1,-1,14,-1,-1,-1],"split_conditions":[1E0,1E0,1.03383385E-1,1.2253499E-1,-1.2010292E-1,-8.4478445E-2,1.2828085E-1,1.2516765E-1,3.827748E-1,9.474584E-3,-3.3790436E-2,2.4931593E-1,-1.895471E-2,2.506499E-2,7.903012E-2],"split_indices":[2,3,0,4,0,0,4,4,4,0,0,4,0,0,0],"split_type":[0,0,0,0,0,0,0,0,0,0,0,0,0,0,0],"sum_hessian":[2.157054E1,1.7793108E1,3.7774317E0,1.4953878E1,2.8392293E0,2.964719E0,1.1989159E1,2.637432E0,9.351727E0,1.4005251E0,1.2369071E0,7.8880715E0,1.4636552E0,6.5151563E0,1.3729155E0],"tree_param":{"num_deleted":"0","num_feature":"5","num_nodes":"15","size_leaf_vector":"1"}},{"base_weights":[-1.197341E-2,-2.5973105E-1,9.977808E-2,-3.4717485E-2,-1.1394008E-1,-7.883403E-2,1.9789189E-1,-1.3738881E-1,2.9756182E-1,8.935295E-3,-3.186288E-2,3.972817E-1,-1.7796667E-2,2.306245E-2,7.6181315E-2],"categories":[],"categories_nodes":[],"categories_segments":[],"categories_sizes":[],"default_left":[0,0,0,0,0,0,0,0,0,0,0,0,0,0,0],"id":7,"left_children":[1,3,-1,5,-1,-1,7,9,11,-1,-1,13,-1,-1,-1],"loss_changes":[5.7990417E0,3.6370718E0,0E0,2.9297078E0,0E0,0E0,4.7163546E-1,1.779697E-1,5.568573E-1,0E0,0E0,3.579706E-1,0E0,0E0,0E0],"parents":[2147483647,0,0,1,1,3,3,6,6,7,7,8,8,11,11],"right_children":[2,4,-1,6,-1,-1,8,10,12,-1,-1,14,-1,-1,-1],"split_conditions":[1E0,1E0,9.977808E-2,1.2253499E-1,-1.1394008E-1,-7.883403E-2,1.2828085E-1,1.2516765E-1,3.827748E-1,8.935295E-3,-3.186288E-2,2.4931593E-1,-1.7796667E-2,2.306245E-2,7.6181315E-2],"split_indices":[2,3,0,4,0,0,4,4,4,0,0,4,0,0,0],"split_type":[0,0,0,0,0,0,0,0,0,0,0,0,0,0,0],"sum_hessian":[2.1144108E1,1.7574684E1,3.5694225E0,1.4822625E1,2.7520602E0,2.9325252E0,1.18901E1,2.637924E0,9.252175E0,1.3970828E0,1.240841E0,7.7843246E0,1.4678512E0,6.462463E0,1.3218617E0],"tree_param":{"num_deleted":"0","num_feature":"5","num_nodes":"15","size_leaf_vector":"1"}},{"base_weights":[-1.2312946E-2,-2.4426451E-1,9.645789E-2,-3.273988E-2,-1.08517624E-1,-7.3721063E-1,1.8422113E-1,-9.200524E-2,-3.1291254E-2,-1.2994213E-1,2.7861053E-1,8.426706E-3,-3.0055005E-2,3.733823E-1,-1.6711647E-2,2.1214172E-2,7.351783E-2],"categories":[],"categories_nodes":[],"categories_segments":[],"categories_sizes":[],"default_left":[0,0,0,0,0,0,0,0,0,0,0,0,0,0,0,0,0],"id":8,"left_children":[1,3,-1,5,-1,7,9,-1,-1,11,13,-1,-1,15,-1,-1,-1],"loss_changes":[5.155092E0,3.2271824E0,0E0,2.5335026E0,0E0,1.4173508E-2,4.1558188E-1,0E0,0E0,1.5826933E-1,4.914087E-1,0E0,0E0,3.5065138E-1,0E0,0E0,0E0],"parents":[2147483647,0,0,1,1,3,3,5,5,6,6,9,9,10,10,13,13],"right_children":[2,4,-1,6,-1,8,10,-1,-1,12,14,-1,-1,16,-1,-1,-1],"split_conditions":[1E0,1E0,9.645789E-2,1.2253499E-1,-1.08517624E-1,1.17636204E-1,1.2828085E-1,-9.200524E-2,-3.1291254E-2,1.2516765E-1,3.827748E-1,8.426706E-3,-3.0055005E-2,2.4931593E-1,-1.6711647E-2,2.1214172E-2,7.351783E-2],"split_indices":[2,3,0,4,0,4,4,0,0,4,4,0,0,4,0,0,0],"split_type":[0,0,0,0,0,0,0,0,0,0,0,0,0,0,0,0,0],"sum_hessian":[2.0710775E1,1.734287E1,3.3679051E0,1.4687325E1,2.655546E0,2.8936787E0,1.1793646E1,1.2056994E0,1.6879792E0,2.6377072E0,9.155939E0,1.3937908E0,1.2439163E0,7.6843724E0,1.4715664E0,6.4127693E0,1.2716031E0],"tree_param":{"num_deleted":"0","num_feature":"5","num_nodes":"17","size_leaf_vector":"1"}},{"base_weights":[-1.4773153E-2,-2.3254143E-1,9.337428E-2,-3.392939E-2,-1.0369027E-1,-7.014807E-1,1.7164496E-1,-8.794386E-2,-2.9445117E-2,-1.2290734E-1,2.6103926E-1,7.94706E-3,-2.8357834E-2,4.653244E-1,2.091641E-2,1.697228E-2,6.481639E-2,-3.600097E-2,3.2183614E-2],"categories":[],"categories_nodes":[],"categories_segments":[],"categories_sizes":[],"default_left":[0,0,0,0,0,0,0,0,0,0,0,0,0,0,0,0,0,0,0],"id":9,"left_children":[1,3,-1,5,-1,7,9,-1,-1,11,13,-1,-1,15,17,-1,-1,-1,-1],"loss_changes":[4.6142926E0,2.8585787E0,0E0,2.2558022E0,0E0,2.0663023E-2,3.6649877E-1,0E0,0E0,1.4079434E-1,4.839121E-1,0E0,0E0,1.8132997E-1,7.6614976E-1,0E0,0E0,0E0,0E0],"parents":[2147483647,0,0,1,1,3,3,5,5,6,6,9,9,10,10,13,13,14,14],"right_children":[2,4,-1,6,-1,8,10,-1,-1,12,14,-1,-1,16,18,-1,-1,-1,-1],"split_conditions":[1E0,1E0,9.337428E-2,1.2253499E-1,-1.0369027E-1,1.17636204E-1,1.2828085E-1,-8.794386E-2,-2.9445117E-2,1.2516765E-1,1.4426789E-1,7.94706E-3,-2.8357834E-2,1.3674137E-1,2.4931593E-1,1.697228E-2,6.481639E-2,-3.600097E-2,3.2183614E-2],"split_indices":[2,3,0,4,0,4,4,0,0,4,4,0,0,4,4,0,0,0,0],"split_type":[0,0,0,0,0,0,0,0,0,0,0,0,0,0,0,0,0,0,0],"sum_hessian":[2.0287905E1,1.7113646E1,3.174258E0,1.4560552E1,2.5530944E0,2.8602636E0,1.1700288E1,1.1825942E0,1.6776695E0,2.6368933E0,9.063395E0,1.3906462E0,1.2462469E0,4.390395E0,4.6729994E0,2.4147174E0,1.9756778E0,1.9756778E0,2.6973214E0],"tree_param":{"num_deleted":"0","num_feature":"5","num_nodes":"19","size_leaf_vector":"1"}},{"base_weights":[-1.66872E-2,-2.2107658E-1,9.048871E-2,-3.4526143E-2,-9.9347234E-2,-6.683674E-1,1.6003624E-1,-8.4233746E-2,-2.7713114E-2,-1.16260506E-1,2.4448854E-1,7.4946852E-3,-2.6763273E-2,3.8840386E-1,-5.5837207E-2,1.5842566E-2,4.761545E-2,-2.1290876E-2,7.5072623E-3],"categories":[],"categories_nodes":[],"categories_segments":[],"categories_sizes":[],"default_left":[0,0,0,0,0,0,0,0,0,0,0,0,0,0,0,0,0,0,0],"id":10,"left_children":[1,3,-1,5,-1,7,9,-1,-1,11,13,-1,-1,15,17,-1,-1,-1,-1],"loss_changes":[4.135936E0,2.5458124E0,0E0,2.013363E0,0E0,2.6829362E-2,3.2324493E-1,0E0,0E0,1.2528457E-1,4.538712E-1,0E0,0E0,6.352186E-2,1.0056944E-1,0E0,0E0,0E0,0E0],"parents":[2147483647,0,0,1,1,3,3,5,5,6,6,9,9,10,10,13,13,14,14],"right_children":[2,4,-1,6,-1,8,10,-1,-1,12,14,-1,-1,16,18,-1,-1,-1,-1],"split_conditions":[1E0,1E0,9.048871E-2,1.2253499E-1,-9.9347234E-2,1.17636204E-1,1.2828085E-1,-8.4233746E-2,-2.7713114E-2,1.2516765E-1,1.8406212E-1,7.4946852E-3,-2.6763273E-2,1.3674137E-1,3.2405987E-1,1.5842566E-2,4.761545E-2,-2.1290876E-2,7.5072623E-3],"split_indices":[2,3,0,4,0,4,4,0,0,4,4,0,0,4,4,0,0,0,0],"split_type":[0,0,0,0,0,0,0,0,0,0,0,0,0,0,0,0,0,0,0],"sum_hessian":[1.9895555E1,1.6906166E1,2.9893882E0,1.445876E1,2.447406E0,2.8238962E0,1.1634864E1,1.1565853E0,1.6673107E0,2.6355798E0,8.999285E0,1.3876452E0,1.2479346E0,5.88563E0,3.1136541E0,2.4002984E0,3.4853318E0,1.1306599E0,1.9829942E0],"tree_param":{"num_deleted":"0","num_feature":"5","num_nodes":"19","size_leaf_vector":"1"}},{"base_weights":[-1.9560726E-2,-2.1187143E-1,8.77703E-2,-3.6575567E-2,-9.540287E-2,-6.3756436E-1,1.4737162E-1,-8.0825955E-2,-2.6086995E-2,2.070986E-1,-1.8113056E-2,7.566485E-2,7.024467E-2,2.2896321E-2,-3.571851E-2],"categories":[],"categories_nodes":[],"categories_segments":[],"categories_sizes":[],"default_left":[0,0,0,0,0,0,0,0,0,0,0,0,0,0,0],"id":11,"left_children":[1,3,-1,5,-1,7,9,-1,-1,11,-1,13,-1,-1,-1],"loss_changes":[3.724394E0,2.2668457E0,0E0,1.7911122E0,0E0,3.255105E-2,2.8407156E-1,0E0,0E0,6.6950315E-1,0E0,7.382266E-1,0E0,0E0,0E0],"parents":[2147483647,0,0,1,1,3,3,5,5,6,6,9,9,11,11],"right_children":[2,4,-1,6,-1,8,10,-1,-1,12,-1,14,-1,-1,-1],"split_conditions":[1E0,1E0,8.77703E-2,1.2253499E-1,-9.540287E-2,1.17636204E-1,3.827748E-1,-8.0825955E-2,-2.6086995E-2,2.4931593E-1,-1.8113056E-2,1.4426789E-1,7.024467E-2,2.2896321E-2,-3.571851E-2],"split_indices":[2,3,0,4,0,4,4,0,0,4,0,4,0,0,0],"split_type":[0,0,0,0,0,0,0,0,0,0,0,0,0,0,0],"sum_hessian":[1.950631E1,1.6692478E1,2.8138328E0,1.4351879E1,2.3405986E0,2.7854125E0,1.1566466E1,1.1284181E0,1.6569945E0,1.0099738E1,1.4667282E0,8.892885E0,1.2068532E0,6.914925E0,1.9779601E0],"tree_param":{"num_deleted":"0","num_feature":"5","num_nodes":"15","size_leaf_vector":"1"}},{"base_weights":[-2.1493915E-2,-2.0254248E-1,8.519436E-2,-3.7493695E-2,-9.179014E-2,-4.3020186E-1,2.1958196E-1,-7.768025E-2,-2.1057203E-1,3.5762492E-1,-6.387987E-2,1.2547964E-2,-5.2053463E-2,1.325847E-1,4.4798893E-1,-2.1754121E-2,6.763357E-3,3.8406022E-2,-2.088297E-2,7.255595E-2,1.4801547E-2],"categories":[],"categories_nodes":[],"categories_segments":[],"categories_sizes":[],"default_left":[0,0,0,0,0,0,0,0,0,0,0,0,0,0,0,0,0,0,0,0,0],"id":12,"left_children":[1,3,-1,5,-1,7,9,-1,11,13,15,-1,-1,17,19,-1,-1,-1,-1,-1,-1],"loss_changes":[3.3554144E0,2.029396E0,0E0,1.6335728E0,0E0,3.2129812E-1,4.0928736E-1,0E0,6.14339E-1,7.874441E-2,9.722053E-2,0E0,0E0,3.692502E-1,2.6117164E-1,0E0,0E0,0E0,0E0,0E0,0E0],"parents":[2147483647,0,0,1,1,3,3,5,5,6,6,8,8,9,9,10,10,13,13,14,14],"right_children":[2,4,-1,6,-1,8,10,-1,12,14,16,-1,-1,18,20,-1,-1,-1,-1,-1,-1],"split_conditions":[1E0,1E0,8.519436E-2,1.2828085E-1,-9.179014E-2,1.17636204E-1,1.8406212E-1,-7.768025E-2,1.23544194E-1,1.3674137E-1,3.2405987E-1,1.2547964E-2,-5.2053463E-2,1.338676E-1,1.4135927E-1,-2.1754121E-2,6.763357E-3,3.8406022E-2,-2.088297E-2,7.255595E-2,1.4801547E-2],"split_indices":[2,3,0,4,0,4,4,0,4,4,4,0,0,4,4,0,0,0,0,0,0],"split_type":[0,0,0,0,0,0,0,0,0,0,0,0,0,0,0,0,0,0,0,0,0],"sum_hessian":[1.9127533E1,1.6479687E1,2.647847E0,1.4245381E1,2.2343054E0,5.3695006E0,8.87588E0,1.0987217E0,4.2707787E0,5.7930784E0,3.0828023E0,2.3347235E0,1.9360553E0,2.3665962E0,3.4264822E0,1.1200224E0,1.9627798E0,1.2908707E0,1.0757256E0,1.042808E0,2.3836744E0],"tree_param":{"num_deleted":"0","num_feature":"5","num_nodes":"21","size_leaf_vector":"1"}},{"base_weights":[-2.1229448E-2,-1.9115838E-1,8.274104E-2,-3.5622116E-2,-8.84561E-2,-5.9596336E-1,1.3448997E-1,-7.476331E-2,-2.5293821E-2,1.9159222E-1,-1.7420439E-2,6.388605E-2,6.8253756E-2,2.0861467E-2,-3.3550493E-2],"categories":[],"categories_nodes":[],"categories_segments":[],"categories_sizes":[],"default_left":[0,0,0,0,0,0,0,0,0,0,0,0,0,0,0],"id":13,"left_children":[1,3,-1,5,-1,7,9,-1,-1,11,-1,13,-1,-1,-1],"loss_changes":[3.0139568E0,1.8355489E0,0E0,1.5273094E0,0E0,4.4225454E-3,2.5304908E-1,0E0,0E0,6.4562273E-1,0E0,6.380268E-1,0E0,0E0,0E0],"parents":[2147483647,0,0,1,1,3,3,5,5,6,6,9,9,11,11],"right_children":[2,4,-1,6,-1,8,10,-1,-1,12,-1,14,-1,-1,-1],"split_conditions":[1E0,1E0,8.274104E-2,1.2253499E-1,-8.84561E-2,1.17636204E-1,3.827748E-1,-7.476331E-2,-2.5293821E-2,2.4931593E-1,-1.7420439E-2,1.4426789E-1,6.8253756E-2,2.0861467E-2,-3.3550493E-2],"split_indices":[2,3,0,4,0,4,4,0,0,4,0,4,0,0,0],"split_type":[0,0,0,0,0,0,0,0,0,0,0,0,0,0,0],"sum_hessian":[1.8803211E1,1.6311745E1,2.4914649E0,1.4181977E1,2.1297686E0,2.7197828E0,1.1462194E1,1.0680237E0,1.651759E0,9.993031E0,1.4691634E0,8.827043E0,1.165988E0,6.8297806E0,1.9972622E0],"tree_param":{"num_deleted":"0","num_feature":"5","num_nodes":"15","size_leaf_vector":"1"}},{"base_weights":[-2.2790233E-2,-1.8311611E-1,8.039441E-2,-5.3786856E-1,8.422125E-2,-6.79326E-2,-2.5859013E-1,2.2298834E-1,-1.6337785E-1,1.4627143E-2,-6.319015E-2,7.9040855E-2,5.4573268E-2,-4.1863553E-2,5.1468644E-2,2.8361845E-1,-3.369658E-2,3.077398E-2,-2.2552313E-2,-1.6332649E-3,6.926005E-2],"categories":[],"categories_nodes":[],"categories_segments":[],"categories_sizes":[],"default_left":[0,0,0,0,0,0,0,0,0,0,0,0,0,0,0,0,0,0,0,0,0],"id":14,"left_children":[1,3,-1,5,7,-1,9,11,13,-1,-1,15,-1,-1,17,19,-1,-1,-1,-1,-1],"loss_changes":[2.7251112E0,1.6674542E0,0E0,1.2006807E-1,4.012696E-1,0E0,7.1685517E-1,2.9264864E-1,2.623484E-1,0E0,0E0,6.204758E-1,0E0,0E0,3.018562E-1,5.851201E-1,0E0,0E0,0E0,0E0,0E0],"parents":[2147483647,0,0,1,1,3,3,4,4,6,6,7,7,8,8,11,11,14,14,15,15],"right_children":[2,4,-1,6,8,-1,10,12,14,-1,-1,16,-1,-1,18,20,-1,-1,-1,-1,-1],"split_conditions":[1E0,1.2834273E-1,8.039441E-2,1.2272917E-1,1.8406212E-1,-6.79326E-2,1.2587571E-1,1.5906687E-1,3.077668E-1,1.4627143E-2,-6.319015E-2,1.4135927E-1,5.4573268E-2,-4.1863553E-2,5.929306E-1,1.3674137E-1,-3.369658E-2,3.077398E-2,-2.2552313E-2,-1.6332649E-3,6.926005E-2],"split_indices":[2,4,0,4,4,0,4,4,4,0,0,4,0,0,4,4,0,0,0,0,0],"split_type":[0,0,0,0,0,0,0,0,0,0,0,0,0,0,0,0,0,0,0,0,0],"sum_hessian":[1.8448933E1,1.6104372E1,2.3445613E0,6.485831E0,9.618541E0,3.354373E0,3.1314578E0,6.2276483E0,3.3908923E0,1.7940083E0,1.3374496E0,5.1677003E0,1.0599481E0,1.1162043E0,2.274688E0,3.6774795E0,1.4902208E0,1.1238768E0,1.1508112E0,2.67539E0,1.0020897E0],"tree_param":{"num_deleted":"0","num_feature":"5","num_nodes":"21","size_leaf_vector":"1"}},{"base_weights":[-1.9573923E-2,-1.6969296E-1,7.814177E-2,-2.4174845E-2,-8.4257744E-2,-4.5413023E-1,1.6011968E-1,-6.965221E-2,-2.0337991E-1,2.2501774E-1,-1.60672E-2,9.343582E-3,-3.7082165E-2,9.194185E-2,6.610645E-2,2.6250338E-2,-3.131867E-2],"categories":[],"categories_nodes":[],"categories_segments":[],"categories_sizes":[],"default_left":[0,0,0,0,0,0,0,0,0,0,0,0,0,0,0,0,0],"id":15,"left_children":[1,3,-1,5,-1,7,9,-1,11,13,-1,-1,-1,15,-1,-1,-1],"loss_changes":[2.4397893E0,1.6423227E0,0E0,1.2605704E0,0E0,1.4755738E-1,2.7000034E-1,0E0,2.2108522E-1,5.055107E-1,0E0,0E0,0E0,6.791383E-1,0E0,0E0,0E0],"parents":[2147483647,0,0,1,1,3,3,5,5,6,6,8,8,9,9,13,13],"right_children":[2,4,-1,6,-1,8,10,-1,12,14,-1,-1,-1,16,-1,-1,-1],"split_conditions":[1E0,1E0,7.814177E-2,1.2489849E-1,-8.4257744E-2,1.17636204E-1,3.827748E-1,-6.965221E-2,1.2239809E-1,2.4931593E-1,-1.60672E-2,9.343582E-3,-3.7082165E-2,1.4426789E-1,6.610645E-2,2.6250338E-2,-3.131867E-2],"split_indices":[2,3,0,4,0,4,4,0,4,4,0,0,0,4,0,0,0],"split_type":[0,0,0,0,0,0,0,0,0,0,0,0,0,0,0,0,0],"sum_hessian":[1.8187538E1,1.5980647E1,2.2068906E0,1.3990899E1,1.9897475E0,3.758422E0,1.0232477E1,1.007121E0,2.751301E0,8.759028E0,1.4734489E0,1.1517068E0,1.5995942E0,7.6386604E0,1.1203682E0,5.623276E0,2.0153842E0],"tree_param":{"num_deleted":"0","num_feature":"5","num_nodes":"17","size_leaf_vector":"1"}},{"base_weights":[-2.088396E-2,-1.62714E-1,7.597286E-2,-2.5308024E-2,-8.1430905E-2,-3.572292E-1,1.902998E-1,-5.1342905E-2,-1.0445911E-1,3.2056174E-1,-7.2867624E-2,6.3869096E-3,-2.3610491E-2,9.456264E-2,4.1910893E-1,-2.1859521E-2,5.7033026E-3,3.4380298E-2,-2.2258667E-2,5.228998E-2,1.4321177E-2],"categories":[],"categories_nodes":[],"categories_segments":[],"categories_sizes":[],"default_left":[0,0,0,0,0,0,0,0,0,0,0,0,0,0,0,0,0,0,0,0,0],"id":16,"left_children":[1,3,-1,5,-1,7,9,-1,11,13,15,-1,-1,17,19,-1,-1,-1,-1,-1,-1],"loss_changes":[2.2130632E0,1.4830344E0,0E0,1.1344106E0,0E0,1.9177455E-1,3.5540268E-1,0E0,9.550533E-2,1.0879165E-1,8.859973E-2,0E0,0E0,3.3856052E-1,4.9659967E-2,0E0,0E0,0E0,0E0,0E0,0E0],"parents":[2147483647,0,0,1,1,3,3,5,5,6,6,8,8,9,9,10,10,13,13,14,14],"right_children":[2,4,-1,6,-1,8,10,-1,12,14,16,-1,-1,18,20,-1,-1,-1,-1,-1,-1],"split_conditions":[1E0,1E0,7.597286E-2,1.2828085E-1,-8.1430905E-2,1.2253499E-1,1.8406212E-1,-5.1342905E-2,1.2516765E-1,1.3674137E-1,3.2405987E-1,6.3869096E-3,-2.3610491E-2,1.338676E-1,1.4426789E-1,-2.1859521E-2,5.7033026E-3,3.4380298E-2,-2.2258667E-2,5.228998E-2,1.4321177E-2],"split_indices":[2,3,0,4,0,4,4,0,4,4,4,0,0,4,4,0,0,0,0,0,0],"split_type":[0,0,0,0,0,0,0,0,0,0,0,0,0,0,0,0,0,0,0,0,0],"sum_hessian":[1.7872396E1,1.5794278E1,2.0781176E0,1.3901599E1,1.8926789E0,5.2155633E0,8.686036E0,2.5862036E0,2.6293597E0,5.6642632E0,3.0217726E0,1.3798559E0,1.249504E0,2.314946E0,3.349317E0,1.1023388E0,1.9194338E0,1.2491927E0,1.0657533E0,1.7832122E0,1.5661049E0],"tree_param":{"num_deleted":"0","num_feature":"5","num_nodes":"21","size_leaf_vector":"1"}},{"base_weights":[-1.9660972E-2,-1.5361723E-1,7.3879614E-2,-2.3303678E-2,-7.877066E-2,-4.0938056E-1,1.4163582E-1,-1.2524217E-2,-5.205046E-2,2.0296647E-1,-1.5437009E-2,7.1967036E-2,6.4357586E-2,2.312335E-2,-2.9468969E-2],"categories":[],"categories_nodes":[],"categories_segments":[],"categories_sizes":[],"default_left":[0,0,0,0,0,0,0,0,0,0,0,0,0,0,0],"id":17,"left_children":[1,3,-1,5,-1,7,9,-1,-1,11,-1,13,-1,-1,-1],"loss_changes":[1.9990258E0,1.3533531E0,0E0,1.0005008E0,0E0,8.281779E-2,2.330885E-1,0E0,0E0,5.0998724E-1,0E0,5.6772834E-1,0E0,0E0,0E0],"parents":[2147483647,0,0,1,1,3,3,5,5,6,6,9,9,11,11],"right_children":[2,4,-1,6,-1,8,10,-1,-1,12,-1,14,-1,-1,-1],"split_conditions":[1E0,1E0,7.3879614E-2,1.2489849E-1,-7.877066E-2,1.2190156E-1,3.827748E-1,-1.2524217E-2,-5.205046E-2,2.4931593E-1,-1.5437009E-2,1.4426789E-1,6.4357586E-2,2.312335E-2,-2.9468969E-2],"split_indices":[2,3,0,4,0,4,4,0,0,4,0,4,0,0,0],"split_type":[0,0,0,0,0,0,0,0,0,0,0,0,0,0,0],"sum_hessian":[1.7558392E1,1.5600535E1,1.9578558E0,1.38010025E1,1.7995329E0,3.6875298E0,1.0113472E1,1.6347102E0,2.0528197E0,8.638039E0,1.4754336E0,7.555127E0,1.0829115E0,5.5246882E0,2.0304394E0],"tree_param":{"num_deleted":"0","num_feature":"5","num_nodes":"15","size_leaf_vector":"1"}},{"base_weights":[-1.927547E-2,-1.4581567E-1,7.185563E-2,-2.2422517E-2,-7.6256566E-2,-3.2078493E-1,1.7180216E-1,-4.6731956E-2,-9.1258794E-2,2.972772E-1,-7.796894E-2,8.284572E-3,-2.3583354E-2,7.3543206E-2,3.991676E-1,-1.8862203E-2,9.373418E-3,3.1644702E-2,-2.2307096E-2,4.8621837E-2,1.5202822E-2],"categories":[],"categories_nodes":[],"categories_segments":[],"categories_sizes":[],"default_left":[0,0,0,0,0,0,0,0,0,0,0,0,0,0,0,0,0,0,0,0,0],"id":18,"left_children":[1,3,-1,5,-1,7,9,-1,11,13,15,-1,-1,17,19,-1,-1,-1,-1,-1,-1],"loss_changes":[1.8120526E0,1.2340518E0,0E0,9.0868986E-1,0E0,1.6442233E-1,3.2319966E-1,0E0,1.1120207E-1,1.206398E-1,9.355053E-2,0E0,0E0,3.072506E-1,1.8484235E-2,0E0,0E0,0E0,0E0,0E0,0E0],"parents":[2147483647,0,0,1,1,3,3,5,5,6,6,8,8,9,9,10,10,13,13,14,14],"right_children":[2,4,-1,6,-1,8,10,-1,12,14,16,-1,-1,18,20,-1,-1,-1,-1,-1,-1],"split_conditions":[1E0,1E0,7.185563E-2,1.2828085E-1,-7.6256566E-2,1.2253499E-1,1.8406212E-1,-4.6731956E-2,1.2516765E-1,1.3674137E-1,4.4524345E-1,8.284572E-3,-2.3583354E-2,1.338676E-1,1.4426789E-1,-1.8862203E-2,9.373418E-3,3.1644702E-2,-2.2307096E-2,4.8621837E-2,1.5202822E-2],"split_indices":[2,3,0,4,0,4,4,0,4,4,4,0,0,4,4,0,0,0,0,0,0],"split_type":[0,0,0,0,0,0,0,0,0,0,0,0,0,0,0,0,0,0,0,0,0],"sum_hessian":[1.7285963E1,1.5440284E1,1.8456793E0,1.37297325E1,1.7105515E0,5.1566367E0,8.573096E0,2.514991E0,2.6416457E0,5.5798182E0,2.9932773E0,1.3921342E0,1.2495115E0,2.2847285E0,3.29509E0,1.7603159E0,1.2329614E0,1.2193291E0,1.0653994E0,1.7213776E0,1.5737123E0],"tree_param":{"num_deleted":"0","num_feature":"5","num_nodes":"21","size_leaf_vector":"1"}},{"base_weights":[-1.7713187E-2,-1.3741012E-1,6.989579E-2,-2.0159425E-2,-7.387189E-2,-3.0135003E-1,1.6215383E-1,-1.0558415E-1,-4.7564954E-2,2.8128013E-1,-7.226298E-2,-3.7852068E-2,1.6411608E-2,6.930715E-2,3.786122E-1,-1.7558273E-2,8.861571E-3,3.014656E-2,-2.1059167E-2,4.6274144E-2,1.4317966E-2],"categories":[],"categories_nodes":[],"categories_segments":[],"categories_sizes":[],"default_left":[0,0,0,0,0,0,0,0,0,0,0,0,0,0,0,0,0,0,0,0,0],"id":19,"left_children":[1,3,-1,5,-1,7,9,11,-1,13,15,-1,-1,17,19,-1,-1,-1,-1,-1,-1],"loss_changes":[1.6406069E0,1.1318011E0,0E0,7.9929936E-1,0E0,1.5818411E-1,2.864738E-1,3.6849076E-1,0E0,1.0835594E-1,8.2163215E-2,0E0,0E0,2.7642626E-1,1.7859876E-2,0E0,0E0,0E0,0E0,0E0,0E0],"parents":[2147483647,0,0,1,1,3,3,5,5,6,6,7,7,9,9,10,10,13,13,14,14],"right_children":[2,4,-1,6,-1,8,10,12,-1,14,16,-1,-1,18,20,-1,-1,-1,-1,-1,-1],"split_conditions":[1E0,1E0,6.989579E-2,1.2828085E-1,-7.387189E-2,1.23544194E-1,1.8406212E-1,1.2129826E-1,-4.7564954E-2,1.3674137E-1,4.4524345E-1,-3.7852068E-2,1.6411608E-2,1.338676E-1,1.4426789E-1,-1.7558273E-2,8.861571E-3,3.014656E-2,-2.1059167E-2,4.6274144E-2,1.4317966E-2],"split_indices":[2,3,0,4,0,4,4,4,0,4,4,0,0,4,4,0,0,0,0,0,0],"split_type":[0,0,0,0,0,0,0,0,0,0,0,0,0,0,0,0,0,0,0,0,0],"sum_hessian":[1.70054E1,1.5264261E1,1.7411394E0,1.3638401E1,1.6258597E0,5.1076694E0,8.530731E0,3.1620035E0,1.9456661E0,5.5237494E0,3.0069823E0,1.3710326E0,1.7909709E0,2.276966E0,3.2467833E0,1.7753904E0,1.231592E0,1.2025087E0,1.0744574E0,1.6807061E0,1.566077E0],"tree_param":{"num_deleted":"0","num_feature":"5","num_nodes":"21","size_leaf_vector":"1"}},{"base_weights":[-1.6735695E-2,-1.298934E-1,6.799612E-2,-1.8682951E-2,-7.160295E-2,-4.3248814E-2,1.00582495E-1,1.4951083E-1,-1.5053915E-2,2.9466918E-2,6.348463E-2,1.5150021E-2,-2.8373474E-2],"categories":[],"categories_nodes":[],"categories_segments":[],"categories_sizes":[],"default_left":[0,0,0,0,0,0,0,0,0,0,0,0,0],"id":20,"left_children":[1,3,-1,5,-1,-1,7,9,-1,11,-1,-1,-1],"loss_changes":[1.4895103E0,1.0380169E0,0E0,7.632617E-1,0E0,0E0,1.7157787E-1,6.021128E-1,0E0,4.0958002E-1,0E0,0E0,0E0],"parents":[2147483647,0,0,1,1,3,3,6,6,7,7,9,9],"right_children":[2,4,-1,6,-1,-1,8,10,-1,12,-1,-1,-1],"split_conditions":[1E0,1E0,6.799612E-2,1.2253499E-1,-7.160295E-2,-4.3248814E-2,3.827748E-1,2.4931593E-1,-1.5053915E-2,1.4426789E-1,6.348463E-2,1.5150021E-2,-2.8373474E-2],"split_indices":[2,3,0,4,0,0,4,4,0,4,0,0,0],"split_type":[0,0,0,0,0,0,0,0,0,0,0,0,0],"sum_hessian":[1.677331E1,1.5129527E1,1.6437838E0,1.3584036E1,1.5454907E0,2.4516141E0,1.11324215E1,9.655734E0,1.4766876E0,8.591427E0,1.0643075E0,6.5540476E0,2.0373793E0],"tree_param":{"num_deleted":"0","num_feature":"5","num_nodes":"13","size_leaf_vector":"1"}},{"base_weights":[-1.5883299E-2,-1.23290725E-1,6.6153474E-2,-1.742219E-2,-6.9438465E-2,-3.3993664E-1,1.1912305E-1,-4.68963E-3,-4.7370113E-2,2.0166041E-1,-7.520233E-2,1.5157594E-2,3.6372744E-2,-1.8357133E-2,9.199689E-3,2.273485E-2,-2.3462621E-2],"categories":[],"categories_nodes":[],"categories_segments":[],"categories_sizes":[],"default_left":[0,0,0,0,0,0,0,0,0,0,0,0,0,0,0,0,0],"id":21,"left_children":[1,3,-1,5,-1,7,9,-1,-1,11,13,15,-1,-1,-1,-1,-1],"loss_changes":[1.355441E0,9.5254815E-1,0E0,6.7840266E-1,0E0,1.5684855E-1,1.9026968E-1,0E0,0E0,2.3430917E-1,8.90571E-2,3.0417508E-1,0E0,0E0,0E0,0E0,0E0],"parents":[2147483647,0,0,1,1,3,3,5,5,6,6,9,9,10,10,11,11],"right_children":[2,4,-1,6,-1,8,10,-1,-1,12,14,16,-1,-1,-1,-1,-1],"split_conditions":[1E0,1E0,6.6153474E-2,1.2489849E-1,-6.9438465E-2,1.2190156E-1,1.8406212E-1,-4.68963E-3,-4.7370113E-2,1.3674137E-1,4.4524345E-1,1.312869E-1,3.6372744E-2,-1.8357133E-2,9.199689E-3,2.273485E-2,-2.3462621E-2],"split_indices":[2,3,0,4,0,4,4,0,0,4,4,4,0,0,0,0,0],"split_type":[0,0,0,0,0,0,0,0,0,0,0,0,0,0,0,0,0],"sum_hessian":[1.6508038E1,1.4954878E1,1.5531588E0,1.3485469E1,1.4694093E0,3.568131E0,9.917337E0,1.5415709E0,2.02656E0,6.934322E0,2.9830158E0,3.7325358E0,3.201786E0,1.7505132E0,1.2325025E0,2.0666983E0,1.6658376E0],"tree_param":{"num_deleted":"0","num_feature":"5","num_nodes":"17","size_leaf_vector":"1"}},{"base_weights":[-1.6026225E-2,-1.1776823E-1,6.436537E-2,-1.7396918E-2,-6.736911E-2,-3.9533086E-2,9.022214E-2,1.3658816E-1,-1.4419391E-2,1.9119652E-2,6.2089887E-2,1.376843E-2,-2.8041182E-2],"categories":[],"categories_nodes":[],"categories_segments":[],"categories_sizes":[],"default_left":[0,0,0,0,0,0,0,0,0,0,0,0,0],"id":22,"left_children":[1,3,-1,5,-1,-1,7,9,-1,11,-1,-1,-1],"loss_changes":[1.2381887E0,8.726867E-1,0E0,6.234895E-1,0E0,0E0,1.5081088E-1,5.903138E-1,0E0,3.7778094E-1,0E0,0E0,0E0],"parents":[2147483647,0,0,1,1,3,3,6,6,7,7,9,9],"right_children":[2,4,-1,6,-1,-1,8,10,-1,12,-1,-1,-1],"split_conditions":[1E0,1E0,6.436537E-2,1.2253499E-1,-6.736911E-2,-3.9533086E-2,3.827748E-1,2.4931593E-1,-1.4419391E-2,1.4426789E-1,6.2089887E-2,1.376843E-2,-2.8041182E-2],"split_indices":[2,3,0,4,0,0,4,4,0,4,0,0,0],"split_type":[0,0,0,0,0,0,0,0,0,0,0,0,0],"sum_hessian":[1.6318775E1,1.4849953E1,1.468822E0,1.3452425E1,1.397528E0,2.3890812E0,1.1063343E1,9.584847E0,1.4784961E0,8.550436E0,1.0344115E0,6.512789E0,2.037647E0],"tree_param":{"num_deleted":"0","num_feature":"5","num_nodes":"13","size_leaf_vector":"1"}},{"base_weights":[-1.5092796E-2,-1.1184935E-1,6.262985E-2,-1.6122367E-2,-6.538713E-2,-2.559253E-1,1.3905549E-1,-3.910888E-2,-4.6599478E-2,2.5117692E-1,-7.743414E-2,-3.187677E-2,2.0826332E-2,1.1520257E-1,4.380481E-2,-1.901359E-2,9.484758E-3,3.814613E-2,-8.890047E-3],"categories":[],"categories_nodes":[],"categories_segments":[],"categories_sizes":[],"default_left":[0,0,0,0,0,0,0,0,0,0,0,0,0,0,0,0,0,0,0],"id":23,"left_children":[1,3,-1,5,-1,7,9,11,-1,13,15,-1,-1,17,-1,-1,-1,-1,-1],"loss_changes":[1.1300002E0,8.035207E-1,0E0,5.6994206E-1,0E0,2.5476354E-1,2.4679366E-1,3.4594703E-1,0E0,1.12310976E-1,9.492396E-2,0E0,0E0,3.0915508E-1,0E0,0E0,0E0,0E0,0E0],"parents":[2147483647,0,0,1,1,3,3,5,5,6,6,7,7,9,9,10,10,13,13],"right_children":[2,4,-1,6,-1,8,10,12,-1,14,16,-1,-1,18,-1,-1,-1,-1,-1],"split_conditions":[1E0,1E0,6.262985E-2,1.2828085E-1,-6.538713E-2,1.23544194E-1,1.8406212E-1,1.2129826E-1,-4.6599478E-2,1.4991423E-1,4.4524345E-1,-3.187677E-2,2.0826332E-2,1.3471052E-1,4.380481E-2,-1.901359E-2,9.484758E-3,3.814613E-2,-8.890047E-3],"split_indices":[2,3,0,4,0,4,4,4,0,4,4,0,0,4,0,0,0,0,0],"split_type":[0,0,0,0,0,0,0,0,0,0,0,0,0,0,0,0,0,0,0],"sum_hessian":[1.6079754E1,1.4689409E1,1.3903445E0,1.3359688E1,1.3297217E0,4.9936104E0,8.366077E0,3.0410547E0,1.9525555E0,5.406031E0,2.9600463E0,1.2919108E0,1.7491441E0,4.0648084E0,1.3412229E0,1.7267938E0,1.2332524E0,1.3867654E0,2.678043E0],"tree_param":{"num_deleted":"0","num_feature":"5","num_nodes":"19","size_leaf_vector":"1"}},{"base_weights":[-1.3467728E-2,-1.05153605E-1,6.094532E-2,-1.406739E-2,-6.348603E-2,-3.679679E-2,8.551378E-2,1.301696E-1,-1.3831518E-2,1.5731862E-2,6.0775664E-2,1.3262919E-2,-2.7707262E-2],"categories":[],"categories_nodes":[],"categories_segments":[],"categories_sizes":[],"default_left":[0,0,0,0,0,0,0,0,0,0,0,0,0],"id":24,"left_children":[1,3,-1,5,-1,-1,7,9,-1,11,-1,-1,-1],"loss_changes":[1.0301218E0,7.436148E-1,0E0,5.365272E-1,0E0,0E0,1.379044E-1,5.651616E-1,0E0,3.6224192E-1,0E0,0E0,0E0],"parents":[2147483647,0,0,1,1,3,3,6,6,7,7,9,9],"right_children":[2,4,-1,6,-1,-1,8,10,-1,12,-1,-1,-1],"split_conditions":[1E0,1E0,6.094532E-2,1.2253499E-1,-6.348603E-2,-3.679679E-2,3.827748E-1,2.4931593E-1,-1.3831518E-2,1.4426789E-1,6.0775664E-2,1.3262919E-2,-2.7707262E-2],"split_indices":[2,3,0,4,0,0,4,4,0,4,0,0,0],"split_type":[0,0,0,0,0,0,0,0,0,0,0,0,0],"sum_hessian":[1.5914447E1,1.4597131E1,1.3173155E0,1.3331293E1,1.2658381E0,2.3356159E0,1.0995677E1,9.515661E0,1.4800158E0,8.509568E0,1.0060928E0,6.472549E0,2.0370193E0],"tree_param":{"num_deleted":"0","num_feature":"5","num_nodes":"13","size_leaf_vector":"1"}},{"base_weights":[-1.262265E-2,-1.0000178E-1,5.9310544E-2,-1.29766725E-2,-6.1660316E-2,-2.3366752E-1,1.2938005E-1,-1.9472735E-2,-4.431161E-2,2.3802935E-1,-7.905167E-2,-2.8627766E-2,2.068203E-2,3.1139215E-2,3.4115794E-1,-1.9544024E-2,9.72219E-3,2.497525E-2,-2.0954367E-2,1.4597798E-2,4.301488E-2],"categories":[],"categories_nodes":[],"categories_segments":[],"categories_sizes":[],"default_left":[0,0,0,0,0,0,0,0,0,0,0,0,0,0,0,0,0,0,0,0,0],"id":25,"left_children":[1,3,-1,5,-1,7,9,11,-1,13,15,-1,-1,17,19,-1,-1,-1,-1,-1,-1],"loss_changes":[9.4309074E-1,6.8651754E-1,0E0,4.7769263E-1,0E0,2.5790852E-1,2.2945902E-1,2.997021E-1,0E0,1.2515303E-1,9.979206E-2,0E0,0E0,2.2161834E-1,9.225994E-3,0E0,0E0,0E0,0E0,0E0,0E0],"parents":[2147483647,0,0,1,1,3,3,5,5,6,6,7,7,9,9,10,10,13,13,14,14],"right_children":[2,4,-1,6,-1,8,10,12,-1,14,16,-1,-1,18,20,-1,-1,-1,-1,-1,-1],"split_conditions":[1E0,1E0,5.9310544E-2,1.2828085E-1,-6.1660316E-2,1.23544194E-1,1.8406212E-1,1.2129826E-1,-4.431161E-2,1.3674137E-1,4.4524345E-1,-2.8627766E-2,2.068203E-2,1.338676E-1,1.4991423E-1,-1.9544024E-2,9.72219E-3,2.497525E-2,-2.0954367E-2,1.4597798E-2,4.301488E-2],"split_indices":[2,3,0,4,0,4,4,4,0,4,4,0,0,4,4,0,0,0,0,0,0],"split_type":[0,0,0,0,0,0,0,0,0,0,0,0,0,0,0,0,0,0,0,0,0],"sum_hessian":[1.5697763E1,1.4448418E1,1.2493459E0,1.324271E1,1.2057079E0,4.941165E0,8.301545E0,2.9832668E0,1.957898E0,5.363638E0,2.937907E0,1.2474355E0,1.7358315E0,2.217325E0,3.1463127E0,1.7040426E0,1.2338645E0,1.142188E0,1.0751369E0,1.8121561E0,1.3341566E0],"tree_param":{"num_deleted":"0","num_feature":"5","num_nodes":"21","size_leaf_vector":"1"}},{"base_weights":[-1.1582235E-2,-9.46442E-2,5.7724353E-2,-1.1686627E-2,-5.990532E-2,-3.4339175E-2,8.073027E-2,2.78857E-2,2.180798E-2,-3.3359673E-2,1.3368298E-1,3.5223592E-2,-3.6740664E-4],"categories":[],"categories_nodes":[],"categories_segments":[],"categories_sizes":[],"default_left":[0,0,0,0,0,0,0,0,0,0,0,0,0],"id":26,"left_children":[1,3,-1,5,-1,-1,7,-1,9,-1,11,-1,-1],"loss_changes":[8.6376494E-1,6.35629E-1,0E0,4.63283E-1,0E0,0E0,1.3309737E-1,0E0,4.531008E-1,0E0,2.5730753E-1,0E0,0E0],"parents":[2147483647,0,0,1,1,3,3,6,6,8,8,10,10],"right_children":[2,4,-1,6,-1,-1,8,-1,10,-1,12,-1,-1],"split_conditions":[1E0,1E0,5.7724353E-2,1.2253499E-1,-5.990532E-2,-3.4339175E-2,1.2587571E-1,2.78857E-2,1.3356818E-1,-3.3359673E-2,1.4135927E-1,3.5223592E-2,-3.6740664E-4],"split_indices":[2,3,0,4,0,0,4,0,4,0,4,0,0],"split_type":[0,0,0,0,0,0,0,0,0,0,0,0,0],"sum_hessian":[1.5543619E1,1.4357555E1,1.1860642E0,1.32084055E1,1.1491499E0,2.2863817E0,1.0922024E1,1.6479963E0,9.274027E0,1.7458708E0,7.5281563E0,2.3016112E0,5.226545E0],"tree_param":{"num_deleted":"0","num_feature":"5","num_nodes":"13","size_leaf_vector":"1"}},{"base_weights":[-1.0950279E-2,-9.022752E-2,5.618575E-2,-1.0898405E-2,-5.8217037E-2,-2.7435803E-1,9.838604E-2,4.919964E-3,-4.4489026E-2,1.7286392E-1,-7.308079E-2,8.825222E-3,3.1801888E-1,-1.8185318E-2,9.211244E-3,2.405761E-2,-2.6196301E-2,1.2772036E-2,4.0932674E-2],"categories":[],"categories_nodes":[],"categories_segments":[],"categories_sizes":[],"default_left":[0,0,0,0,0,0,0,0,0,0,0,0,0,0,0,0,0,0,0],"id":27,"left_children":[1,3,-1,5,-1,7,9,-1,-1,11,13,15,17,-1,-1,-1,-1,-1,-1],"loss_changes":[7.935334E-1,5.88056E-1,0E0,4.339728E-1,0E0,2.6512098E-1,1.496211E-1,0E0,0E0,1.8234098E-1,8.774837E-2,3.5665137E-1,1.8904865E-2,0E0,0E0,0E0,0E0,0E0,0E0],"parents":[2147483647,0,0,1,1,3,3,5,5,6,6,9,9,10,10,11,11,12,12],"right_children":[2,4,-1,6,-1,8,10,-1,-1,12,14,16,18,-1,-1,-1,-1,-1,-1],"split_conditions":[1E0,1E0,5.618575E-2,1.2489849E-1,-5.8217037E-2,1.2190156E-1,1.8406212E-1,4.919964E-3,-4.4489026E-2,1.3674137E-1,4.4524345E-1,1.312869E-1,1.4991423E-1,-1.8185318E-2,9.211244E-3,2.405761E-2,-2.6196301E-2,1.2772036E-2,4.0932674E-2],"split_indices":[2,3,0,4,0,4,4,0,0,4,4,4,4,0,0,0,0,0,0],"split_type":[0,0,0,0,0,0,0,0,0,0,0,0,0,0,0,0,0,0,0],"sum_hessian":[1.5358252E1,1.4231129E1,1.1271225E0,1.3135151E1,1.0959781E0,3.408221E0,9.72693E0,1.4218955E0,1.9863256E0,6.7757053E0,2.9512248E0,3.6789484E0,3.0967567E0,1.7186916E0,1.2325332E0,2.042484E0,1.6364644E0,1.7818714E0,1.3148854E0],"tree_param":{"num_deleted":"0","num_feature":"5","num_nodes":"19","size_leaf_vector":"1"}},{"base_weights":[-9.803955E-3,-8.518834E-2,5.469389E-2,-9.539087E-3,-5.659197E-2,-3.154036E-2,7.4548E-2,2.736357E-3,2.479084E-1,1.2265377E-1,-2.9254777E-2,2.9741837E-2,8.708308E-3,-1.2216597E-3,3.854269E-2],"categories":[],"categories_nodes":[],"categories_segments":[],"categories_sizes":[],"default_left":[0,0,0,0,0,0,0,0,0,0,0,0,0,0,0],"id":28,"left_children":[1,3,-1,5,-1,-1,7,9,11,13,-1,-1,-1,-1,-1],"loss_changes":[7.284384E-1,5.4643154E-1,0E0,3.8687253E-1,0E0,0E0,1.473473E-1,3.6939704E-1,1.7418861E-3,2.670746E-1,0E0,0E0,0E0,0E0,0E0],"parents":[2147483647,0,0,1,1,3,3,6,6,7,7,8,8,9,9],"right_children":[2,4,-1,6,-1,-1,8,10,12,14,-1,-1,-1,-1,-1],"split_conditions":[1E0,1E0,5.469389E-2,1.2253499E-1,-5.659197E-2,-3.154036E-2,2.4931593E-1,1.4426789E-1,4.4524345E-1,1.3674137E-1,-2.9254777E-2,2.9741837E-2,8.708308E-3,-1.2216597E-3,3.854269E-2],"split_indices":[2,3,0,4,0,0,4,4,4,4,0,0,0,0,0],"split_type":[0,0,0,0,0,0,0,0,0,0,0,0,0,0,0],"sum_hessian":[1.5246132E1,1.4173934E1,1.0721983E0,1.3127929E1,1.0460052E0,2.2376437E0,1.0890285E1,8.418745E0,2.47154E0,6.40304E0,2.0157049E0,1.2403681E0,1.2311717E0,4.861398E0,1.5416416E0],"tree_param":{"num_deleted":"0","num_feature":"5","num_nodes":"15","size_leaf_vector":"1"}},{"base_weights":[-8.057056E-3,-8.007293E-2,5.3247865E-2,-2.719053E-1,5.6123883E-2,-7.8882806E-2,-4.505538E-2,3.0193357E-2,-2.3670334E-2,-2.909998E-2,2.9531062E-2,-2.2985084E-1,1.5626593E-1,6.2155426E-3,-4.610647E-2,3.5869997E-2,-1.742736E-2],"categories":[],"categories_nodes":[],"categories_segments":[],"categories_sizes":[],"default_left":[0,0,0,0,0,0,0,0,0,0,0,0,0,0,0,0,0],"id":29,"left_children":[1,3,-1,5,7,9,-1,-1,11,-1,-1,13,15,-1,-1,-1,-1],"loss_changes":[6.6851544E-1,4.0865943E-1,0E0,1.8593776E-1,1.9611788E-1,4.2719415E-1,0E0,0E0,3.4015658E-1,0E0,0E0,3.1400266E-1,3.9535517E-1,0E0,0E0,0E0,0E0],"parents":[2147483647,0,0,1,1,3,3,4,4,5,5,8,8,11,11,12,12],"right_children":[2,4,-1,6,8,10,-1,-1,12,-1,-1,14,16,-1,-1,-1,-1],"split_conditions":[1E0,1.2834273E-1,5.3247865E-2,1.23544194E-1,1.3471052E-1,1.2247108E-1,-4.505538E-2,3.0193357E-2,1.6321245E-1,-2.909998E-2,2.9531062E-2,1.4135927E-1,3.827748E-1,6.2155426E-3,-4.610647E-2,3.5869997E-2,-1.742736E-2],"split_indices":[2,4,0,4,4,4,0,0,4,0,0,4,4,0,0,0,0],"split_type":[0,0,0,0,0,0,0,0,0,0,0,0,0,0,0,0,0],"sum_hessian":[1.5078195E1,1.4057208E1,1.0209862E0,5.422806E0,8.634402E0,3.2994432E0,2.1233625E0,1.4337544E0,7.200648E0,2.2476552E0,1.0517882E0,3.2263377E0,3.9743102E0,1.7488477E0,1.47749E0,2.4119513E0,1.5623589E0],"tree_param":{"num_deleted":"0","num_feature":"5","num_nodes":"17","size_leaf_vector":"1"}},{"base_weights":[-6.0791904E-3,-2.922112E-1,1.0736025E-1,9.6054777E-4,-4.375129E-1,4.4009462E-2,3.2688454E-2,-6.1140932E-2,-8.944191E-3,-3.8227726E-2,1.4089744E-1,2.7834773E-1,-9.93431E-2,3.4588564E-2,7.2242625E-2,-3.2206867E-2,7.825287E-2,3.3752635E-2,-4.0229242E-2,2.7243609E-2,-1.5290195E-2],"categories":[],"categories_nodes":[],"categories_segments":[],"categories_sizes":[],"default_left":[0,0,0,0,0,0,0,0,0,0,0,0,0,0,0,0,0,0,0,0,0],"id":30,"left_children":[1,3,5,-1,7,-1,9,-1,-1,-1,11,13,15,17,-1,-1,19,-1,-1,-1,-1],"loss_changes":[5.4951364E-1,2.1473315E-1,2.878011E-1,0E0,1.4276135E-1,0E0,5.4840094E-1,0E0,0E0,0E0,3.4023798E-1,6.5527534E-1,1.9062066E-1,8.1175303E-1,0E0,0E0,1.8220536E-1,0E0,0E0,0E0,0E0],"parents":[2147483647,0,0,1,1,2,2,4,4,6,6,10,10,11,11,12,12,13,13,16,16],"right_children":[2,4,6,-1,8,-1,10,-1,-1,-1,12,14,16,18,-1,-1,20,-1,-1,-1,-1],"split_conditions":[1.2489849E-1,1.2190156E-1,1.2766936E-1,9.6054777E-4,1.22731715E-1,4.4009462E-2,1.3356818E-1,-6.1140932E-2,-8.944191E-3,-3.8227726E-2,2.0135546E-1,1.6321245E-1,3.077668E-1,1.4135927E-1,7.2242625E-2,-3.2206867E-2,5.929306E-1,3.3752635E-2,-4.0229242E-2,2.7243609E-2,-1.5290195E-2],"split_indices":[4,4,4,0,4,0,4,0,0,0,4,4,4,4,0,0,4,0,0,0,0],"split_type":[0,0,0,0,0,0,0,0,0,0,0,0,0,0,0,0,0,0,0,0,0],"sum_hessian":[1.4963131E1,3.8006654E0,1.1162465E1,1.5386065E0,2.262059E0,1.1489726E0,1.0013493E1,1.00393E0,1.258129E0,1.5472492E0,8.466244E0,5.28429E0,3.181954E0,4.1075196E0,1.1767703E0,1.0507292E0,2.1312246E0,2.5598862E0,1.5476333E0,1.0611832E0,1.0700414E0],"tree_param":{"num_deleted":"0","num_feature":"5","num_nodes":"21","size_leaf_vector":"1"}},{"base_weights":[-6.4613153E-3,-3.4423854E-2,8.130256E-2,1.4503832E-1,-9.4206095E-2,-5.009637E-4,6.984897E-2,-3.0397454E-2,7.458026E-2,1.271022E-1,-3.744479E-2,2.6005223E-2,-1.4495279E-2,-3.1546205E-2,3.170859E-2,2.7657172E-2,-3.037082E-2],"categories":[],"categories_nodes":[],"categories_segments":[],"categories_sizes":[],"default_left":[0,0,0,0,0,0,0,0,0,0,0,0,0,0,0,0,0],"id":31,"left_children":[1,-1,3,5,7,9,-1,-1,11,13,-1,-1,-1,15,-1,-1,-1],"loss_changes":[4.988369E-1,0E0,1.6374087E-1,8.2484204E-1,1.70682E-1,4.8200437E-1,0E0,0E0,1.6471153E-1,2.3709197E-1,0E0,0E0,0E0,5.045677E-1,0E0,0E0,0E0],"parents":[2147483647,0,0,2,2,3,3,4,4,5,5,8,8,9,9,13,13],"right_children":[2,-1,4,6,8,10,-1,-1,12,14,-1,-1,-1,16,-1,-1,-1],"split_conditions":[1.2272917E-1,-3.4423854E-2,2.0135546E-1,1.6321245E-1,3.077668E-1,1.4135927E-1,6.984897E-2,-3.0397454E-2,5.929306E-1,1.3356818E-1,-3.744479E-2,2.6005223E-2,-1.4495279E-2,1.2588924E-1,3.170859E-2,2.7657172E-2,-3.037082E-2],"split_indices":[4,0,4,4,4,4,0,0,4,4,0,0,0,4,0,0,0],"split_type":[0,0,0,0,0,0,0,0,0,0,0,0,0,0,0,0,0],"sum_hessian":[1.4883123E1,2.466803E0,1.2416321E1,9.235919E0,3.1804013E0,8.103946E0,1.1319734E0,1.06093E0,2.1194713E0,6.534323E0,1.5696226E0,1.0488137E0,1.0706576E0,4.015271E0,2.519052E0,1.8756368E0,2.1396344E0],"tree_param":{"num_deleted":"0","num_feature":"5","num_nodes":"17","size_leaf_vector":"1"}},{"base_weights":[-5.2021197E-3,-2.720444E-1,9.9817626E-2,3.004005E-3,-4.233465E-2,4.1936483E-2,2.7987977E-2,-3.3735726E-2,1.2552622E-1,2.5087187E-1,-8.9270614E-2,2.6336988E-2,6.758031E-2,-2.869298E-2,7.112194E-2,2.9781371E-2,-3.4870613E-2,2.4825282E-2,-1.3742353E-2],"categories":[],"categories_nodes":[],"categories_segments":[],"categories_sizes":[],"default_left":[0,0,0,0,0,0,0,0,0,0,0,0,0,0,0,0,0,0,0],"id":32,"left_children":[1,3,5,-1,-1,-1,7,-1,9,11,13,15,-1,-1,17,-1,-1,-1,-1],"loss_changes":[4.690374E-1,2.2852316E-1,2.6476708E-1,0E0,0E0,0E0,4.310252E-1,0E0,2.7380046E-1,5.6985074E-1,1.5287991E-1,6.2008446E-1,0E0,0E0,1.4892834E-1,0E0,0E0,0E0,0E0],"parents":[2147483647,0,0,1,1,2,2,6,6,8,8,9,9,10,10,11,11,14,14],"right_children":[2,4,6,-1,-1,-1,8,-1,10,12,14,16,-1,-1,18,-1,-1,-1,-1],"split_conditions":[1.2489849E-1,1.2190156E-1,1.2766936E-1,3.004005E-3,-4.233465E-2,4.1936483E-2,1.3356818E-1,-3.3735726E-2,2.0135546E-1,1.6321245E-1,3.077668E-1,1.4135927E-1,6.758031E-2,-2.869298E-2,5.929306E-1,2.9781371E-2,-3.4870613E-2,2.4825282E-2,-1.3742353E-2],"split_indices":[4,4,4,0,0,0,4,0,4,4,4,4,0,0,4,0,0,0,0],"split_type":[0,0,0,0,0,0,0,0,0,0,0,0,0,0,0,0,0,0,0],"sum_hessian":[1.4768168E1,3.721608E0,1.104656E1,1.5094165E0,2.2121913E0,1.1394014E0,9.907159E0,1.5695264E0,8.337632E0,5.159079E0,3.1785533E0,4.0703E0,1.0887789E0,1.0704571E0,2.1080964E0,2.480616E0,1.5896842E0,1.0369487E0,1.0711477E0],"tree_param":{"num_deleted":"0","num_feature":"5","num_nodes":"19","size_leaf_vector":"1"}},{"base_weights":[-3.662332E-3,-3.1628173E-2,7.652703E-2,1.353821E-1,-8.453543E-2,3.5075971E-3,6.542676E-2,-2.7086962E-2,6.7861915E-2,1.1762966E-1,-3.24882E-2,2.3700774E-2,-1.3029109E-2,-5.6253135E-2,2.4771683E-1,2.7037844E-2,-4.6674132E-2,3.6647256E-2,4.662928E-3],"categories":[],"categories_nodes":[],"categories_segments":[],"categories_sizes":[],"default_left":[0,0,0,0,0,0,0,0,0,0,0,0,0,0,0,0,0,0,0],"id":33,"left_children":[1,-1,3,5,7,9,-1,-1,11,13,-1,-1,-1,15,17,-1,-1,-1,-1],"loss_changes":[4.179511E-1,0E0,1.3757151E-1,6.9080967E-1,1.3697977E-1,3.7856895E-1,0E0,0E0,1.3468477E-1,1.8299156E-1,0E0,0E0,0E0,6.64311E-1,8.942661E-2,0E0,0E0,0E0,0E0],"parents":[2147483647,0,0,2,2,3,3,4,4,5,5,8,8,9,9,13,13,14,14],"right_children":[2,-1,4,6,8,10,-1,-1,12,14,-1,-1,-1,16,18,-1,-1,-1,-1],"split_conditions":[1.2272917E-1,-3.1628173E-2,2.0135546E-1,1.6321245E-1,3.077668E-1,1.4135927E-1,6.542676E-2,-2.7086962E-2,5.929306E-1,1.2834273E-1,-3.24882E-2,2.3700774E-2,-1.3029109E-2,1.2588924E-1,1.3474385E-1,2.7037844E-2,-4.6674132E-2,3.6647256E-2,4.662928E-3],"split_indices":[4,0,4,4,4,4,0,0,4,4,0,0,0,4,4,0,0,0,0],"split_type":[0,0,0,0,0,0,0,0,0,0,0,0,0,0,0,0,0,0,0],"sum_hessian":[1.4706687E1,2.4012382E0,1.2305449E1,9.128995E0,3.1764534E0,8.081776E0,1.0472196E0,1.0793526E0,2.0971007E0,6.473798E0,1.6079779E0,1.0255737E0,1.0715269E0,3.0134294E0,3.4603684E0,1.8681997E0,1.1452297E0,1.6584744E0,1.801894E0],"tree_param":{"num_deleted":"0","num_feature":"5","num_nodes":"19","size_leaf_vector":"1"}},{"base_weights":[-2.7984495E-3,-2.478095E-1,9.3300894E-2,4.758816E-3,-4.0070456E-2,4.048957E-2,2.3221452E-2,-2.279283E-1,1.5473637E-1,-3.2224815E-2,-4.4267247E-3,3.3790627E-1,-7.999838E-2,7.144718E-2,6.337944E-2,-2.5573386E-2,6.47857E-2,3.4440313E-2,-2.9337516E-2,2.2628905E-2,-1.2353393E-2],"categories":[],"categories_nodes":[],"categories_segments":[],"categories_sizes":[],"default_left":[0,0,0,0,0,0,0,0,0,0,0,0,0,0,0,0,0,0,0,0,0],"id":34,"left_children":[1,3,5,-1,-1,-1,7,9,11,-1,-1,13,15,17,-1,-1,19,-1,-1,-1,-1],"loss_changes":[3.9003995E-1,2.2970751E-1,2.5088087E-1,0E0,0E0,0E0,3.917264E-1,5.699031E-2,3.5718322E-1,0E0,0E0,3.098573E-1,1.2277347E-1,4.4928607E-1,0E0,0E0,1.2182747E-1,0E0,0E0,0E0,0E0],"parents":[2147483647,0,0,1,1,2,2,6,6,7,7,8,8,11,11,12,12,13,13,16,16],"right_children":[2,4,6,-1,-1,-1,8,10,12,-1,-1,14,16,18,-1,-1,20,-1,-1,-1,-1],"split_conditions":[1.2489849E-1,1.2190156E-1,1.2766936E-1,4.758816E-3,-4.0070456E-2,4.048957E-2,1.3674137E-1,1.3356818E-1,2.0135546E-1,-3.2224815E-2,-4.4267247E-3,1.6321245E-1,3.077668E-1,1.434584E-1,6.337944E-2,-2.5573386E-2,5.929306E-1,3.4440313E-2,-2.9337516E-2,2.2628905E-2,-1.2353393E-2],"split_indices":[4,4,4,0,0,0,4,4,4,0,0,4,4,4,0,0,4,0,0,0,0],"split_type":[0,0,0,0,0,0,0,0,0,0,0,0,0,0,0,0,0,0,0,0,0],"sum_hessian":[1.4583472E1,3.663776E0,1.0919697E1,1.4844767E0,2.179299E0,1.1277418E0,9.791955E0,3.1133652E0,6.67859E0,1.558441E0,1.5549241E0,3.5044491E0,3.1741405E0,2.4971406E0,1.0073085E0,1.0876567E0,2.086484E0,1.4604323E0,1.0367084E0,1.0146744E0,1.0718094E0],"tree_param":{"num_deleted":"0","num_feature":"5","num_nodes":"21","size_leaf_vector":"1"}},{"base_weights":[-9.973069E-4,-2.9111877E-2,7.2640374E-2,2.641558E-2,1.7842652E-2,-4.4672243E-2,1.13437876E-1,3.5887748E-2,2.4151841E-2,-3.575508E-2,1.2682909E-1,2.9387495E-2,-7.5656073E-3],"categories":[],"categories_nodes":[],"categories_segments":[],"categories_sizes":[],"default_left":[0,0,0,0,0,0,0,0,0,0,0,0,0],"id":35,"left_children":[1,-1,3,-1,5,-1,7,-1,9,-1,11,-1,-1],"loss_changes":[3.5278365E-1,0E0,1.3361725E-1,0E0,5.534484E-1,0E0,2.1456455E-1,0E0,3.8010886E-1,0E0,2.7486998E-1,0E0,0E0],"parents":[2147483647,0,0,2,2,4,4,6,6,8,8,10,10],"right_children":[2,-1,4,-1,6,-1,8,-1,10,-1,12,-1,-1],"split_conditions":[1.2272917E-1,-2.9111877E-2,1.2588924E-1,2.641558E-2,1.2834273E-1,-4.4672243E-2,1.3474385E-1,3.5887748E-2,1.373888E-1,-3.575508E-2,2.0135546E-1,2.9387495E-2,-7.5656073E-3],"split_indices":[4,0,4,0,4,0,4,0,4,0,4,0,0],"split_type":[0,0,0,0,0,0,0,0,0,0,0,0,0],"sum_hessian":[1.4523248E1,2.3421464E0,1.2181102E1,1.859984E0,1.0321117E1,1.1345365E0,9.186581E0,1.6450543E0,7.5415263E0,1.0724427E0,6.469084E0,3.2974327E0,3.1716511E0],"tree_param":{"num_deleted":"0","num_feature":"5","num_nodes":"13","size_leaf_vector":"1"}},{"base_weights":[-2.5033525E-3,-2.2611217E-1,8.514438E-2,6.256876E-3,-3.801604E-2,3.9105784E-2,1.655295E-2,-3.0851131E-2,1.0538303E-1,2.1059555E-1,-6.9800764E-2,2.05204E-2,5.54593E-2,-2.3724927E-2,6.691312E-2,2.6631886E-2,-3.2460894E-2,2.1948524E-2,-1.1321206E-2],"categories":[],"categories_nodes":[],"categories_segments":[],"categories_sizes":[],"default_left":[0,0,0,0,0,0,0,0,0,0,0,0,0,0,0,0,0,0,0],"id":36,"left_children":[1,3,5,-1,-1,-1,7,-1,9,11,13,15,-1,-1,17,-1,-1,-1,-1],"loss_changes":[3.211803E-1,2.2886837E-1,2.4099703E-1,0E0,0E0,0E0,3.4084293E-1,0E0,1.8300973E-1,3.779323E-1,1.1150883E-1,4.9987862E-1,0E0,0E0,1.0948836E-1,0E0,0E0,0E0,0E0],"parents":[2147483647,0,0,1,1,2,2,6,6,8,8,9,9,10,10,11,11,14,14],"right_children":[2,4,6,-1,-1,-1,8,-1,10,12,14,16,-1,-1,18,-1,-1,-1,-1],"split_conditions":[1.2489849E-1,1.2190156E-1,1.2766936E-1,6.256876E-3,-3.801604E-2,3.9105784E-2,1.3356818E-1,-3.0851131E-2,2.0135546E-1,1.5906687E-1,3.077668E-1,1.4135927E-1,5.54593E-2,-2.3724927E-2,5.929306E-1,2.6631886E-2,-3.2460894E-2,2.1948524E-2,-1.1321206E-2],"split_indices":[4,4,4,0,0,0,4,0,4,4,4,4,0,0,4,0,0,0,0],"split_type":[0,0,0,0,0,0,0,0,0,0,0,0,0,0,0,0,0,0,0],"sum_hessian":[1.4405435E1,3.6116164E0,1.0793818E1,1.4632931E0,2.1483233E0,1.1158653E0,9.677953E0,1.5463177E0,8.131636E0,4.9541273E0,3.1775084E0,3.87349E0,1.0806371E0,1.0976839E0,2.0798244E0,2.395666E0,1.4778242E0,1.0077289E0,1.0720956E0],"tree_param":{"num_deleted":"0","num_feature":"5","num_nodes":"19","size_leaf_vector":"1"}},{"base_weights":[-1.2957832E-3,-2.6846988E-2,6.604519E-2,1.2120847E-3,2.3609391E-1,1.05565146E-1,-2.5326256E-2,5.99231E-2,-1.3493893E-2,-2.7255751E-2,3.977621E-2,2.5795573E-2,-1.9544524E-1,-4.2805318E-2,-1.245769E-4],"categories":[],"categories_nodes":[],"categories_segments":[],"categories_sizes":[],"default_left":[0,0,0,0,0,0,0,0,0,0,0,0,0,0,0],"id":37,"left_children":[1,-1,3,5,7,9,-1,-1,-1,11,-1,-1,13,-1,-1],"loss_changes":[2.9403317E-1,0E0,1.4378762E-1,3.046677E-1,5.6617415E-1,3.262979E-1,0E0,0E0,0E0,3.6336946E-1,0E0,0E0,2.1055022E-1,0E0,0E0],"parents":[2147483647,0,0,2,2,3,3,4,4,5,5,9,9,12,12],"right_children":[2,-1,4,6,8,10,-1,-1,-1,12,-1,-1,14,-1,-1],"split_conditions":[1.2272917E-1,-2.6846988E-2,2.4931593E-1,1.4426789E-1,3.827748E-1,1.3674137E-1,-2.5326256E-2,5.99231E-2,-1.3493893E-2,1.2588924E-1,3.977621E-2,2.5795573E-2,1.2834273E-1,-4.2805318E-2,-1.245769E-4],"split_indices":[4,0,4,4,4,4,0,0,0,4,0,0,4,0,0],"split_type":[0,0,0,0,0,0,0,0,0,0,0,0,0,0,0],"sum_hessian":[1.435714E1,2.28897E0,1.206817E1,9.466197E0,2.6019728E0,7.1282587E0,2.3379385E0,1.0041534E0,1.5978194E0,5.5239954E0,1.6042632E0,1.8511468E0,3.6728485E0,1.1232504E0,2.5495982E0],"tree_param":{"num_deleted":"0","num_feature":"5","num_nodes":"15","size_leaf_vector":"1"}},{"base_weights":[3.8808674E-5,-2.0667453E-1,8.085078E-2,7.5271646E-3,-3.6145665E-2,3.7783265E-2,1.4102192E-2,-2.0819198E-1,1.335793E-1,2.4971287E-4,-3.1272124E-2,2.9838493E-1,-7.212847E-2,5.369531E-2,5.4360837E-2,-2.3436686E-2,6.2309885E-3,2.074949E-2,-1.3125302E-2],"categories":[],"categories_nodes":[],"categories_segments":[],"categories_sizes":[],"default_left":[0,0,0,0,0,0,0,0,0,0,0,0,0,0,0,0,0,0,0],"id":38,"left_children":[1,3,5,-1,-1,-1,7,9,11,-1,-1,13,15,17,-1,-1,-1,-1,-1],"loss_changes":[2.712981E-1,2.2640963E-1,2.2612014E-1,0E0,0E0,0E0,3.085882E-1,9.0780094E-2,2.7528605E-1,0E0,0E0,2.318545E-1,1.0478777E-1,1.207388E-1,0E0,0E0,0E0,0E0,0E0],"parents":[2147483647,0,0,1,1,2,2,6,6,7,7,8,8,11,11,12,12,13,13],"right_children":[2,4,6,-1,-1,-1,8,10,12,-1,-1,14,16,18,-1,-1,-1,-1,-1],"split_conditions":[1.2489849E-1,1.2190156E-1,1.2766936E-1,7.5271646E-3,-3.6145665E-2,3.7783265E-2,1.3674137E-1,1.3351323E-1,2.0135546E-1,2.4971287E-4,-3.1272124E-2,1.5906687E-1,3.077668E-1,1.4171934E-1,5.4360837E-2,-2.3436686E-2,6.2309885E-3,2.074949E-2,-1.3125302E-2],"split_indices":[4,4,4,0,0,0,4,4,4,0,0,4,4,4,0,0,0,0,0],"split_type":[0,0,0,0,0,0,0,0,0,0,0,0,0,0,0,0,0,0,0],"sum_hessian":[1.4240327E1,3.5646472E0,1.0675679E1,1.445416E0,2.1192312E0,1.1038461E0,9.571834E0,3.0865676E0,6.4852657E0,1.3472208E0,1.7393469E0,3.3504658E0,3.1348002E0,2.2872045E0,1.063261E0,1.0837009E0,2.0510993E0,1.1822009E0,1.1050037E0],"tree_param":{"num_deleted":"0","num_feature":"5","num_nodes":"19","size_leaf_vector":"1"}},{"base_weights":[1.6290579E-3,-2.4808573E-2,6.387363E-2,1.5888414E-3,2.2765566E-1,1.0349272E-1,-2.4663866E-2,4.1144572E-2,-1.035907E-2,-1.7904215E-2,3.7337124E-2,1.4365447E-1,-2.9039716E-2,2.5181795E-2,-1.0463119E-3],"categories":[],"categories_nodes":[],"categories_segments":[],"categories_sizes":[],"default_left":[0,0,0,0,0,0,0,0,0,0,0,0,0,0,0],"id":39,"left_children":[1,-1,3,5,7,9,-1,-1,-1,11,-1,13,-1,-1,-1],"loss_changes":[2.5238502E-1,0E0,1.3201645E-1,2.8881288E-1,2.5985798E-1,2.7152342E-1,0E0,0E0,0E0,3.2918358E-1,0E0,8.212348E-2,0E0,0E0,0E0],"parents":[2147483647,0,0,2,2,3,3,4,4,5,5,9,9,11,11],"right_children":[2,-1,4,6,8,10,-1,-1,-1,12,-1,14,-1,-1,-1],"split_conditions":[1.2272917E-1,-2.4808573E-2,2.4931593E-1,1.4426789E-1,5.929306E-1,1.3674137E-1,-2.4663866E-2,4.1144572E-2,-1.035907E-2,1.3351323E-1,3.7337124E-2,1.2588924E-1,-2.9039716E-2,2.5181795E-2,-1.0463119E-3],"split_indices":[4,0,4,4,4,4,0,0,0,4,0,4,0,0,0],"split_type":[0,0,0,0,0,0,0,0,0,0,0,0,0,0,0],"sum_hessian":[1.4217977E1,2.2411594E0,1.1976817E1,9.408538E0,2.5682786E0,7.083606E0,2.3249323E0,1.496076E0,1.0722024E0,5.5298314E0,1.5537742E0,3.7683964E0,1.7614352E0,1.8418249E0,1.9265716E0],"tree_param":{"num_deleted":"0","num_feature":"5","num_nodes":"15","size_leaf_vector":"1"}},{"base_weights":[2.4815912E-3,-1.5619302E-1,1.0000769E-1,6.796029E-2,-3.9542045E-2,3.6103275E-2,5.1542344E-3,-1.5858745E-2,3.640246E-2,-3.3064563E-2,1.0077829E-1,2.5347754E-1,-7.825904E-2,-1.20835425E-2,5.3279977E-2,-1.9878982E-2,9.642306E-3,1.1027844E-2,-1.2263706E-2],"categories":[],"categories_nodes":[],"categories_segments":[],"categories_sizes":[],"default_left":[0,0,0,0,0,0,0,0,0,0,0,0,0,0,0,0,0,0,0],"id":40,"left_children":[1,3,5,7,-1,-1,9,-1,-1,-1,11,13,15,17,-1,-1,-1,-1,-1],"loss_changes":[2.4995747E-1,3.5691202E-1,2.454404E-1,3.2808733E-1,0E0,0E0,3.0114177E-1,0E0,0E0,0E0,2.1827063E-1,3.1450993E-1,1.05599195E-1,5.555247E-2,0E0,0E0,0E0,0E0,0E0],"parents":[2147483647,0,0,1,1,2,2,3,3,6,6,10,10,11,11,12,12,13,13],"right_children":[2,4,6,8,-1,-1,10,-1,-1,-1,12,14,16,18,-1,-1,-1,-1,-1],"split_conditions":[1.2834273E-1,1.23544194E-1,1.3474385E-1,1.2247108E-1,-3.9542045E-2,3.6103275E-2,1.373888E-1,-1.5858745E-2,3.640246E-2,-3.3064563E-2,2.0135546E-1,1.5906687E-1,4.4524345E-1,1.4171934E-1,5.3279977E-2,-1.9878982E-2,9.642306E-3,1.1027844E-2,-1.2263706E-2],"split_indices":[4,4,4,4,0,0,4,0,0,0,4,4,4,4,0,0,0,0,0],"split_type":[0,0,0,0,0,0,0,0,0,0,0,0,0,0,0,0,0,0,0],"sum_hessian":[1.4143021E1,5.154735E0,8.988286E0,3.0308146E0,2.1239204E0,1.6477271E0,7.3405585E0,1.9800403E0,1.0507743E0,1.0822589E0,6.2582994E0,3.1531916E0,3.105108E0,2.1068642E0,1.0463274E0,1.7556791E0,1.349429E0,1.0012057E0,1.1056585E0],"tree_param":{"num_deleted":"0","num_feature":"5","num_nodes":"19","size_leaf_vector":"1"}},{"base_weights":[4.058959E-3,-1.8722184E-1,7.812046E-2,9.578931E-3,-3.4808666E-2,3.735627E-2,1.1487899E-2,-2.829336E-2,9.352266E-2,1.6240136E-1,-1.3785777E-2,1.1836485E-2,3.332537E-2,2.5855765E-2,-3.0873438E-2],"categories":[],"categories_nodes":[],"categories_segments":[],"categories_sizes":[],"default_left":[0,0,0,0,0,0,0,0,0,0,0,0,0,0,0],"id":41,"left_children":[1,3,5,-1,-1,-1,7,-1,9,11,-1,13,-1,-1,-1],"loss_changes":[2.2831547E-1,2.3842373E-1,2.2366272E-1,0E0,0E0,0E0,2.7958742E-1,0E0,1.6499448E-1,1.8524507E-1,0E0,4.7102672E-1,0E0,0E0,0E0],"parents":[2147483647,0,0,1,1,2,2,6,6,8,8,9,9,11,11],"right_children":[2,4,6,-1,-1,-1,8,-1,10,12,-1,14,-1,-1,-1],"split_conditions":[1.2489849E-1,1.2190156E-1,1.2766936E-1,9.578931E-3,-3.4808666E-2,3.735627E-2,1.3356818E-1,-2.829336E-2,3.827748E-1,1.6321245E-1,-1.3785777E-2,1.4135927E-1,3.332537E-2,2.5855765E-2,-3.0873438E-2],"split_indices":[4,4,4,0,0,0,4,0,4,4,0,4,0,0,0],"split_type":[0,0,0,0,0,0,0,0,0,0,0,0,0,0,0],"sum_hessian":[1.4084105E1,3.5046413E0,1.0579463E1,1.4167223E0,2.087919E0,1.0992388E0,9.480225E0,1.5322076E0,7.9480166E0,6.354493E0,1.5935237E0,3.9461756E0,2.4083176E0,2.3392575E0,1.6069181E0],"tree_param":{"num_deleted":"0","num_feature":"5","num_nodes":"15","size_leaf_vector":"1"}},{"base_weights":[3.6389166E-3,-5.66995E-2,2.1644855E-1,1.075202E-2,-2.4835711E-2,3.919754E-2,-9.608796E-3,-9.066253E-2,3.5712652E-2,7.700152E-2,-1.929087E-1,-2.2745972E-2,2.9276807E-2,-3.7216485E-2,1.7720401E-2,2.5375286E-2,-2.4925377E-2],"categories":[],"categories_nodes":[],"categories_segments":[],"categories_sizes":[],"default_left":[0,0,0,0,0,0,0,0,0,0,0,0,0,0,0,0,0],"id":42,"left_children":[1,3,5,7,-1,-1,-1,9,-1,11,13,-1,-1,-1,15,-1,-1],"loss_changes":[2.0532353E-1,1.6433954E-1,2.312426E-1,3.9098465E-1,0E0,0E0,0E0,1.6389924E-1,0E0,3.2990295E-1,2.2127858E-1,0E0,0E0,0E0,2.8813395E-1,0E0,0E0],"parents":[2147483647,0,0,1,1,2,2,3,3,7,7,9,9,10,10,14,14],"right_children":[2,4,6,8,-1,-1,-1,10,-1,12,14,-1,-1,-1,16,-1,-1],"split_conditions":[2.4931593E-1,1.4426789E-1,5.929306E-1,1.3674137E-1,-2.4835711E-2,3.919754E-2,-9.608796E-3,1.23544194E-1,3.5712652E-2,1.2129826E-1,1.2834273E-1,-2.2745972E-2,2.9276807E-2,-3.7216485E-2,1.3441887E-1,2.5375286E-2,-2.4925377E-2],"split_indices":[4,4,4,4,0,0,0,4,0,4,4,0,0,0,4,0,0],"split_type":[0,0,0,0,0,0,0,0,0,0,0,0,0,0,0,0,0],"sum_hessian":[1.4034428E1,1.1505744E1,2.5286837E0,9.208741E0,2.2970026E0,1.4565057E0,1.072178E0,7.6942143E0,1.5145266E0,3.0082173E0,4.685997E0,1.2251931E0,1.7830242E0,2.117217E0,2.5687802E0,1.3896819E0,1.1790981E0],"tree_param":{"num_deleted":"0","num_feature":"5","num_nodes":"17","size_leaf_vector":"1"}},{"base_weights":[4.059149E-3,-2.2407997E-2,6.0555622E-2,2.5352914E-2,4.9892226E-3,-3.835885E-2,8.709287E-2,3.3748057E-2,-2.6942366E-3,-3.1704526E-2,8.9374065E-2,2.4432503E-2,-8.84633E-3],"categories":[],"categories_nodes":[],"categories_segments":[],"categories_sizes":[],"default_left":[0,0,0,0,0,0,0,0,0,0,0,0,0],"id":43,"left_children":[1,-1,3,-1,5,-1,7,-1,9,-1,11,-1,-1],"loss_changes":[2.0654145E-1,0E0,1.3585164E-1,0E0,3.827057E-1,0E0,2.224355E-1,0E0,2.6695865E-1,0E0,2.1883981E-1,0E0,0E0],"parents":[2147483647,0,0,2,2,4,4,6,6,8,8,10,10],"right_children":[2,-1,4,-1,6,-1,8,-1,10,-1,12,-1,-1],"split_conditions":[1.2272917E-1,-2.2407997E-2,1.2588924E-1,2.5352914E-2,1.2834273E-1,-3.835885E-2,1.3474385E-1,3.3748057E-2,1.373888E-1,-3.1704526E-2,2.0135546E-1,2.4432503E-2,-8.84633E-3],"split_indices":[4,0,4,0,4,0,4,0,4,0,4,0,0],"split_type":[0,0,0,0,0,0,0,0,0,0,0,0,0],"sum_hessian":[1.3971784E1,2.184453E0,1.1787332E1,1.8388065E0,9.948524E0,1.0948496E0,8.853675E0,1.6087387E0,7.2449365E0,1.0876749E0,6.157262E0,3.0905635E0,3.066698E0],"tree_param":{"num_deleted":"0","num_feature":"5","num_nodes":"13","size_leaf_vector":"1"}},{"base_weights":[2.5268123E-3,-5.676261E-2,2.1104835E-1,9.61319E-3,-2.4245001E-2,3.7774824E-2,-8.654679E-3,-8.354967E-2,3.3114247E-2,6.7409407E-3,-2.7786894E-2,-1.736991E-1,2.4228965E-1,1.1337239E-2,-3.4051422E-2,3.7925866E-2,1.2487428E-3],"categories":[],"categories_nodes":[],"categories_segments":[],"categories_sizes":[],"default_left":[0,0,0,0,0,0,0,0,0,0,0,0,0,0,0,0,0],"id":44,"left_children":[1,3,5,7,-1,-1,-1,9,-1,11,-1,13,15,-1,-1,-1,-1],"loss_changes":[1.9587532E-1,1.5478764E-1,2.065704E-1,3.2943404E-1,0E0,0E0,0E0,1.52928E-1,0E0,3.334178E-1,0E0,2.5236267E-1,1.0199122E-1,0E0,0E0,0E0,0E0],"parents":[2147483647,0,0,1,1,2,2,3,3,7,7,9,9,11,11,12,12],"right_children":[2,4,6,8,-1,-1,-1,10,-1,12,-1,14,16,-1,-1,-1,-1],"split_conditions":[2.4931593E-1,1.4426789E-1,5.929306E-1,1.3674137E-1,-2.4245001E-2,3.7774824E-2,-8.654679E-3,1.3351323E-1,3.3114247E-2,1.2489849E-1,-2.7786894E-2,1.2190156E-1,1.2766936E-1,1.1337239E-2,-3.4051422E-2,3.7925866E-2,1.2487428E-3],"split_indices":[4,4,4,4,0,0,0,4,0,4,0,4,4,0,0,0,0],"split_type":[0,0,0,0,0,0,0,0,0,0,0,0,0,0,0,0,0],"sum_hessian":[1.3874532E1,1.1369578E1,2.5049536E0,9.07416E0,2.2954187E0,1.4329444E0,1.0720093E0,7.6094704E0,1.4646891E0,5.8544874E0,1.7549827E0,3.4637153E0,2.3907723E0,1.3907499E0,2.0729654E0,1.0904573E0,1.300315E0],"tree_param":{"num_deleted":"0","num_feature":"5","num_nodes":"17","size_leaf_vector":"1"}},{"base_weights":[4.1651516E-3,-2.0812249E-2,5.645623E-2,2.4689961E-2,1.7018395E-3,-3.755036E-2,8.205963E-2,3.268219E-2,-5.5163065E-3,-2.5199903E-2,1.0641481E-1,3.1509873E-2,-8.984042E-3],"categories":[],"categories_nodes":[],"categories_segments":[],"categories_sizes":[],"default_left":[0,0,0,0,0,0,0,0,0,0,0,0,0],"id":45,"left_children":[1,-1,3,-1,5,-1,7,-1,9,-1,11,-1,-1],"loss_changes":[1.7654991E-1,0E0,1.319933E-1,0E0,3.6028826E-1,0E0,2.1146946E-1,0E0,2.5269502E-1,0E0,2.8769892E-1,0E0,0E0],"parents":[2147483647,0,0,2,2,4,4,6,6,8,8,10,10],"right_children":[2,-1,4,-1,6,-1,8,-1,10,-1,12,-1,-1],"split_conditions":[1.2272917E-1,-2.0812249E-2,1.2588924E-1,2.4689961E-2,1.2834273E-1,-3.755036E-2,1.3474385E-1,3.268219E-2,1.4167438E-1,-2.5199903E-2,2.0135546E-1,3.1509873E-2,-8.984042E-3],"split_indices":[4,0,4,0,4,0,4,0,4,0,4,0,0],"split_type":[0,0,0,0,0,0,0,0,0,0,0,0,0],"sum_hessian":[1.3845852E1,2.1475012E0,1.1698351E1,1.8286906E0,9.86966E0,1.0882831E0,8.781377E0,1.5941333E0,7.187244E0,1.8537464E0,5.3334975E0,2.2914143E0,3.0420833E0],"tree_param":{"num_deleted":"0","num_feature":"5","num_nodes":"13","size_leaf_vector":"1"}},{"base_weights":[3.575748E-3,-5.4112554E-2,2.0609291E-1,1.2781031E-2,-2.4104105E-2,3.6426224E-2,-7.7433474E-3,-7.5469404E-2,3.168645E-2,7.3313923E-3,-3.486042E-2,-1.1649157E-1,2.9883781E-2,9.500117E-3,-3.4875832E-2],"categories":[],"categories_nodes":[],"categories_segments":[],"categories_sizes":[],"default_left":[0,0,0,0,0,0,0,0,0,0,0,0,0,0,0],"id":46,"left_children":[1,3,5,7,-1,-1,-1,9,-1,11,-1,13,-1,-1,-1],"loss_changes":[1.8369946E-1,1.567201E-1,1.8437251E-1,2.9222554E-1,0E0,0E0,0E0,1.9607957E-1,0E0,3.0717984E-1,0E0,3.2863957E-1,0E0,0E0,0E0],"parents":[2147483647,0,0,1,1,2,2,3,3,7,7,9,9,11,11],"right_children":[2,4,6,8,-1,-1,-1,10,-1,12,-1,14,-1,-1,-1],"split_conditions":[2.4931593E-1,1.4426789E-1,5.929306E-1,1.3674137E-1,-2.4104105E-2,3.6426224E-2,-7.7433474E-3,1.3471052E-1,3.168645E-2,1.2834273E-1,-3.486042E-2,1.23544194E-1,2.9883781E-2,9.500117E-3,-3.4875832E-2],"split_indices":[4,4,4,4,0,0,0,4,0,4,0,4,0,0,0],"split_type":[0,0,0,0,0,0,0,0,0,0,0,0,0,0,0],"sum_hessian":[1.3769251E1,1.1286904E1,2.4823465E0,8.998396E0,2.2885087E0,1.4106429E0,1.0717037E0,7.557026E0,1.4413699E0,6.5458193E0,1.0112064E0,5.01569E0,1.5301298E0,2.9345706E0,2.081119E0],"tree_param":{"num_deleted":"0","num_feature":"5","num_nodes":"15","size_leaf_vector":"1"}},{"base_weights":[3.7349712E-3,-1.6189423E-1,6.865749E-2,1.1335676E-2,-3.24431E-2,3.8348358E-2,-2.3339477E-3,-2.896064E-2,7.8961745E-2,1.844787E-1,-9.076829E-2,5.708723E-3,5.1220495E-2,-2.306729E-2,1.0810795E-2,2.554785E-2,-3.31585E-2],"categories":[],"categories_nodes":[],"categories_segments":[],"categories_sizes":[],"default_left":[0,0,0,0,0,0,0,0,0,0,0,0,0,0,0,0,0],"id":47,"left_children":[1,3,5,-1,-1,-1,7,-1,9,11,13,15,-1,-1,-1,-1,-1],"loss_changes":[1.6942054E-1,2.3556808E-1,2.5296795E-1,0E0,0E0,0E0,2.610119E-1,0E0,1.731601E-1,3.3192605E-1,1.3674226E-1,4.8145813E-1,0E0,0E0,0E0,0E0,0E0],"parents":[2147483647,0,0,1,1,2,2,6,6,8,8,9,9,10,10,11,11],"right_children":[2,4,6,-1,-1,-1,8,-1,10,12,14,16,-1,-1,-1,-1,-1],"split_conditions":[1.2489849E-1,1.2190156E-1,1.2766936E-1,1.1335676E-2,-3.24431E-2,3.8348358E-2,1.3356818E-1,-2.896064E-2,2.0135546E-1,1.5906687E-1,4.4524345E-1,1.4135927E-1,5.1220495E-2,-2.306729E-2,1.0810795E-2,2.554785E-2,-3.31585E-2],"split_indices":[4,4,4,0,0,0,4,0,4,4,4,4,0,0,0,0,0],"split_type":[0,0,0,0,0,0,0,0,0,0,0,0,0,0,0,0,0],"sum_hessian":[1.3721874E1,3.4434226E0,1.0278452E1,1.3907715E0,2.052651E0,1.0813142E0,9.197138E0,1.463439E0,7.733699E0,4.715373E0,3.0183258E0,3.7093792E0,1.005994E0,1.6780069E0,1.3403188E0,2.2705646E0,1.4388148E0],"tree_param":{"num_deleted":"0","num_feature":"5","num_nodes":"17","size_leaf_vector":"1"}},{"base_weights":[4.802594E-3,-5.0356627E-2,1.9790286E-1,1.35502005E-2,-2.2913774E-2,3.5468087E-2,-7.901779E-3,-7.014864E-2,3.0437846E-2,1.2279668E-2,-3.4350194E-2,-1.0513376E-1,2.8860433E-2,9.639188E-3,-3.2981243E-2],"categories":[],"categories_nodes":[],"categories_segments":[],"categories_sizes":[],"default_left":[0,0,0,0,0,0,0,0,0,0,0,0,0,0,0],"id":48,"left_children":[1,3,5,7,-1,-1,-1,9,-1,11,-1,13,-1,-1,-1],"loss_changes":[1.6653563E-1,1.4284581E-1,1.7862709E-1,2.6365763E-1,0E0,0E0,0E0,1.9669534E-1,0E0,2.7460632E-1,0E0,3.042159E-1,0E0,0E0,0E0],"parents":[2147483647,0,0,1,1,2,2,3,3,7,7,9,9,11,11],"right_children":[2,4,6,8,-1,-1,-1,10,-1,12,-1,14,-1,-1,-1],"split_conditions":[2.4931593E-1,1.4426789E-1,5.929306E-1,1.3674137E-1,-2.2913774E-2,3.5468087E-2,-7.901779E-3,1.3471052E-1,3.0437846E-2,1.2834273E-1,-3.4350194E-2,1.23544194E-1,2.8860433E-2,9.639188E-3,-3.2981243E-2],"split_indices":[4,4,4,4,0,0,0,4,0,4,0,4,0,0,0],"split_type":[0,0,0,0,0,0,0,0,0,0,0,0,0,0,0],"sum_hessian":[1.3699661E1,1.1230797E1,2.4688644E0,8.954237E0,2.27656E0,1.3970976E0,1.071767E0,7.5423775E0,1.4118594E0,6.528745E0,1.0136324E0,5.016645E0,1.5121001E0,2.9455822E0,2.0710626E0],"tree_param":{"num_deleted":"0","num_feature":"5","num_nodes":"15","size_leaf_vector":"1"}},{"base_weights":[4.8593925E-3,-2.0495474E-2,5.710818E-2,2.5773028E-2,-1.3677658E-3,-3.3004843E-2,6.8957604E-2,2.8586606E-2,-7.345273E-3,-2.4538456E-2,1.0166035E-1,3.0823633E-2,-9.197217E-3],"categories":[],"categories_nodes":[],"categories_segments":[],"categories_sizes":[],"default_left":[0,0,0,0,0,0,0,0,0,0,0,0,0],"id":49,"left_children":[1,-1,3,-1,5,-1,7,-1,9,-1,11,-1,-1],"loss_changes":[1.7234053E-1,0E0,1.4715874E-1,0E0,2.697216E-1,0E0,1.6145563E-1,0E0,2.3506133E-1,0E0,2.787998E-1,0E0,0E0],"parents":[2147483647,0,0,2,2,4,4,6,6,8,8,10,10],"right_children":[2,-1,4,-1,6,-1,8,-1,10,-1,12,-1,-1],"split_conditions":[1.2272917E-1,-2.0495474E-2,1.2588924E-1,2.5773028E-2,1.2834273E-1,-3.3004843E-2,1.3474385E-1,2.8586606E-2,1.4167438E-1,-2.4538456E-2,2.0135546E-1,3.0823633E-2,-9.197217E-3],"split_indices":[4,0,4,0,4,0,4,0,4,0,4,0,0],"split_type":[0,0,0,0,0,0,0,0,0,0,0,0,0],"sum_hessian":[1.3653175E1,2.139394E0,1.1513782E1,1.8295195E0,9.684262E0,1.0559396E0,8.628323E0,1.5306455E0,7.0976768E0,1.836384E0,5.2612925E0,2.2592063E0,3.0020864E0],"tree_param":{"num_deleted":"0","num_feature":"5","num_nodes":"13","size_leaf_vector":"1"}},{"base_weights":[4.3032942E-3,-4.991874E-2,1.9383995E-1,2.557093E-2,-2.1159112E-1,3.4238447E-2,-7.0187594E-3,-6.866025E-2,3.1186452E-2,-3.2857195E-2,1.5767224E-4,2.7179083E-2,-3.2774076E-2,-1.5169045E-1,2.7126598E-1,1.1305841E-2,-3.1043127E-2,3.850756E-2,2.4906013E-3],"categories":[],"categories_nodes":[],"categories_segments":[],"categories_sizes":[],"default_left":[0,0,0,0,0,0,0,0,0,0,0,0,0,0,0,0,0,0,0],"id":50,"left_children":[1,3,5,7,9,-1,-1,11,-1,-1,-1,13,-1,15,17,-1,-1,-1,-1],"loss_changes":[1.5952253E-1,1.5348311E-1,1.5926616E-1,2.6860663E-1,9.9507526E-2,0E0,0E0,2.0043193E-1,0E0,0E0,0E0,3.2729232E-1,0E0,2.2100616E-1,7.817793E-2,0E0,0E0,0E0,0E0],"parents":[2147483647,0,0,1,1,2,2,3,3,4,4,7,7,11,11,13,13,14,14],"right_children":[2,4,6,8,10,-1,-1,12,-1,-1,-1,14,-1,16,18,-1,-1,-1,-1],"split_conditions":[2.4931593E-1,1.4135927E-1,5.929306E-1,1.3515896E-1,1.6321245E-1,3.4238447E-2,-7.0187594E-3,1.312869E-1,3.1186452E-2,-3.2857195E-2,1.5767224E-4,1.2489849E-1,-3.2774076E-2,1.2190156E-1,1.2766936E-1,1.1305841E-2,-3.1043127E-2,3.850756E-2,2.4906013E-3],"split_indices":[4,4,4,4,4,0,0,4,0,0,0,4,0,4,4,0,0,0,0],"split_type":[0,0,0,0,0,0,0,0,0,0,0,0,0,0,0,0,0,0,0],"sum_hessian":[1.358065E1,1.1132523E1,2.4481285E0,8.162869E0,2.9696531E0,1.3767692E0,1.0713593E0,6.7133884E0,1.449481E0,1.5678707E0,1.4017823E0,5.5539565E0,1.1594315E0,3.4236257E0,2.130331E0,1.3911829E0,2.0324428E0,1.0720304E0,1.0583007E0],"tree_param":{"num_deleted":"0","num_feature":"5","num_nodes":"19","size_leaf_vector":"1"}},{"base_weights":[4.932244E-3,-1.9102417E-2,5.3413786E-2,2.4969593E-2,-3.6010607E-3,-3.2522462E-2,6.5562405E-2,2.8120687E-2,-1.0009625E-2,-2.4007572E-2,9.662926E-2,3.0259913E-2,-9.536261E-3],"categories":[],"categories_nodes":[],"categories_segments":[],"categories_sizes":[],"default_left":[0,0,0,0,0,0,0,0,0,0,0,0,0],"id":51,"left_children":[1,-1,3,-1,5,-1,7,-1,9,-1,11,-1,-1],"loss_changes":[1.485571E-1,0E0,1.4029634E-1,0E0,2.5796494E-1,0E0,1.5906133E-1,0E0,2.2107041E-1,0E0,2.749769E-1,0E0,0E0],"parents":[2147483647,0,0,2,2,4,4,6,6,8,8,10,10],"right_children":[2,-1,4,-1,6,-1,8,-1,10,-1,12,-1,-1],"split_conditions":[1.2272917E-1,-1.9102417E-2,1.2588924E-1,2.4969593E-2,1.2834273E-1,-3.2522462E-2,1.3474385E-1,2.8120687E-2,1.4167438E-1,-2.4007572E-2,2.0135546E-1,3.0259913E-2,-9.536261E-3],"split_indices":[4,0,4,0,4,0,4,0,4,0,4,0,0],"split_type":[0,0,0,0,0,0,0,0,0,0,0,0,0],"sum_hessian":[1.3563143E1,2.1069536E0,1.1456189E1,1.8179915E0,9.638198E0,1.0505722E0,8.5876255E0,1.5224049E0,7.065221E0,1.8413461E0,5.2238746E0,2.2422612E0,2.9816134E0],"tree_param":{"num_deleted":"0","num_feature":"5","num_nodes":"13","size_leaf_vector":"1"}},{"base_weights":[4.3837978E-3,-4.880297E-2,1.9026819E-1,2.825197E-2,-2.1376635E-1,3.3082735E-2,-6.1642462E-3,-6.476341E-2,3.0821655E-2,-3.2234777E-2,-6.839768E-4,2.9877031E-2,-3.1883053E-2,-1.4033255E-1,2.6133406E-1,1.1791321E-2,-2.9829368E-2,3.7019584E-2,2.3558994E-3],"categories":[],"categories_nodes":[],"categories_segments":[],"categories_sizes":[],"default_left":[0,0,0,0,0,0,0,0,0,0,0,0,0,0,0,0,0,0,0],"id":52,"left_children":[1,3,5,7,9,-1,-1,11,-1,-1,-1,13,-1,15,17,-1,-1,-1,-1],"loss_changes":[1.5257722E-1,1.5940024E-1,1.4179224E-1,2.5711504E-1,8.672595E-2,0E0,0E0,1.9376284E-1,0E0,0E0,0E0,2.9262897E-1,0E0,2.1443422E-1,7.158594E-2,0E0,0E0,0E0,0E0],"parents":[2147483647,0,0,1,1,2,2,3,3,4,4,7,7,11,11,13,13,14,14],"right_children":[2,4,6,8,10,-1,-1,12,-1,-1,-1,14,-1,16,18,-1,-1,-1,-1],"split_conditions":[2.4931593E-1,1.4135927E-1,5.929306E-1,1.3515896E-1,1.6321245E-1,3.3082735E-2,-6.1642462E-3,1.312869E-1,3.0821655E-2,-3.2234777E-2,-6.839768E-4,1.2489849E-1,-3.1883053E-2,1.2190156E-1,1.2766936E-1,1.1791321E-2,-2.9829368E-2,3.7019584E-2,2.3558994E-3],"split_indices":[4,4,4,4,4,0,0,4,0,0,0,4,0,4,4,0,0,0,0],"split_type":[0,0,0,0,0,0,0,0,0,0,0,0,0,0,0,0,0,0,0],"sum_hessian":[1.3493528E1,1.10649805E1,2.4285479E0,8.106939E0,2.9580405E0,1.3577106E0,1.0708373E0,6.6621733E0,1.4447664E0,1.5742105E0,1.3838298E0,5.4969535E0,1.1652198E0,3.3944395E0,2.102514E0,1.3844976E0,2.0099418E0,1.0602007E0,1.0423133E0],"tree_param":{"num_deleted":"0","num_feature":"5","num_nodes":"19","size_leaf_vector":"1"}},{"base_weights":[5.012342E-3,-4.4878013E-2,1.8056639E-1,1.9683616E-2,-2.259506E-2,3.1535614E-2,-5.846167E-3,-6.072637E-2,2.9514939E-2,1.1658034E-1,-1.7460151E-1,-2.0830272E-2,3.3712152E-2,-3.7009478E-2,-2.643041E-2,2.6042713E-2,-2.4114478E-2],"categories":[],"categories_nodes":[],"categories_segments":[],"categories_sizes":[],"default_left":[0,0,0,0,0,0,0,0,0,0,0,0,0,0,0,0,0],"id":53,"left_children":[1,3,5,7,-1,-1,-1,9,-1,11,13,-1,-1,-1,15,-1,-1],"loss_changes":[1.3490357E-1,1.4560321E-1,1.2807244E-1,2.3545578E-1,0E0,0E0,0E0,1.9058692E-1,0E0,3.4943485E-1,1.5052643E-1,0E0,0E0,0E0,3.230332E-1,0E0,0E0],"parents":[2147483647,0,0,1,1,2,2,3,3,7,7,9,9,10,10,14,14],"right_children":[2,4,6,8,-1,-1,-1,10,-1,12,14,-1,-1,-1,16,-1,-1],"split_conditions":[2.4931593E-1,1.4426789E-1,5.929306E-1,1.3674137E-1,-2.259506E-2,3.1535614E-2,-5.846167E-3,1.23544194E-1,2.9514939E-2,1.2129826E-1,1.2636681E-1,-2.0830272E-2,3.3712152E-2,-3.7009478E-2,1.312869E-1,2.6042713E-2,-2.4114478E-2],"split_indices":[4,4,4,4,0,0,0,4,0,4,4,0,0,0,4,0,0],"split_type":[0,0,0,0,0,0,0,0,0,0,0,0,0,0,0,0,0],"sum_hessian":[1.3477451E1,1.1074558E1,2.402893E0,8.820789E0,2.2537684E0,1.3322823E0,1.0706109E0,7.4311466E0,1.3896428E0,2.8968759E0,4.534271E0,1.1937842E0,1.7030917E0,1.3091966E0,3.225074E0,1.2894603E0,1.9356139E0],"tree_param":{"num_deleted":"0","num_feature":"5","num_nodes":"17","size_leaf_vector":"1"}},{"base_weights":[5.296595E-3,-1.8007359E-2,5.101939E-2,2.452124E-2,-5.426727E-3,-3.2334205E-2,6.35406E-2,1.5440911E-1,-1.0455449E-1,7.848603E-3,3.0387586E-2,-2.5626853E-2,1.1051971E-2,2.1216229E-2,-3.20318E-2],"categories":[],"categories_nodes":[],"categories_segments":[],"categories_sizes":[],"default_left":[0,0,0,0,0,0,0,0,0,0,0,0,0,0,0],"id":54,"left_children":[1,-1,3,-1,5,-1,7,9,11,13,-1,-1,-1,-1,-1],"loss_changes":[1.3169064E-1,0E0,1.3695772E-1,0E0,2.5218934E-1,0E0,1.6151717E-1,1.4178903E-1,1.5674776E-1,3.595938E-1,0E0,0E0,0E0,0E0,0E0],"parents":[2147483647,0,0,2,2,4,4,6,6,7,7,8,8,9,9],"right_children":[2,-1,4,-1,6,-1,8,10,12,14,-1,-1,-1,-1,-1],"split_conditions":[1.2272917E-1,-1.8007359E-2,1.2588924E-1,2.452124E-2,1.2834273E-1,-3.2334205E-2,2.0135546E-1,1.4167438E-1,4.4524345E-1,1.3571362E-1,3.0387586E-2,-2.5626853E-2,1.1051971E-2,2.1216229E-2,-3.20318E-2],"split_indices":[4,0,4,0,4,0,4,4,4,4,0,0,0,0,0],"split_type":[0,0,0,0,0,0,0,0,0,0,0,0,0,0,0],"sum_hessian":[1.3453583E1,2.0804813E0,1.1373101E1,1.808182E0,9.564919E0,1.0475843E0,8.517335E0,5.581511E0,2.935824E0,3.3495755E0,2.2319355E0,1.6091727E0,1.3266511E0,2.2821937E0,1.0673819E0],"tree_param":{"num_deleted":"0","num_feature":"5","num_nodes":"15","size_leaf_vector":"1"}},{"base_weights":[3.4015765E-3,-4.5205824E-2,1.742626E-1,2.9674206E-2,-2.0557612E-1,3.090412E-2,-6.114791E-3,-5.9862778E-2,2.9848611E-2,-3.175309E-2,2.1456434E-4,1.135099E-1,-1.880321E-1,-1.9000918E-2,3.146509E-2,-3.5572287E-2,-2.17369E-2,2.3252374E-2,-3.2217454E-2],"categories":[],"categories_nodes":[],"categories_segments":[],"categories_sizes":[],"default_left":[0,0,0,0,0,0,0,0,0,0,0,0,0,0,0,0,0,0,0],"id":55,"left_children":[1,3,5,7,9,-1,-1,11,-1,-1,-1,13,15,-1,-1,-1,17,-1,-1],"loss_changes":[1.2745434E-1,1.5024054E-1,1.2660871E-1,2.3584354E-1,9.246434E-2,0E0,0E0,1.9081312E-1,0E0,0E0,0E0,2.9575738E-1,1.2504297E-1,0E0,0E0,0E0,3.3889213E-1,0E0,0E0],"parents":[2147483647,0,0,1,1,2,2,3,3,4,4,7,7,11,11,12,12,16,16],"right_children":[2,4,6,8,10,-1,-1,12,-1,-1,-1,14,16,-1,-1,-1,18,-1,-1],"split_conditions":[2.4931593E-1,1.4135927E-1,5.929306E-1,1.3515896E-1,1.6321245E-1,3.090412E-2,-6.114791E-3,1.23544194E-1,2.9848611E-2,-3.175309E-2,2.1456434E-4,1.2129826E-1,1.2636681E-1,-1.9000918E-2,3.146509E-2,-3.5572287E-2,1.3351323E-1,2.3252374E-2,-3.2217454E-2],"split_indices":[4,4,4,4,4,0,0,4,0,0,0,4,4,0,0,0,4,0,0],"split_type":[0,0,0,0,0,0,0,0,0,0,0,0,0,0,0,0,0,0,0],"sum_hessian":[1.3397961E1,1.1003152E1,2.3948085E0,8.056417E0,2.9467344E0,1.3240054E0,1.0708033E0,6.626531E0,1.4298865E0,1.5712502E0,1.3754842E0,2.8651977E0,3.7613335E0,1.1640322E0,1.7011656E0,1.305636E0,2.4556973E0,1.4524975E0,1.0031998E0],"tree_param":{"num_deleted":"0","num_feature":"5","num_nodes":"19","size_leaf_vector":"1"}},{"base_weights":[2.5048116E-3,-1.3673891E-1,5.7392277E-2,1.3716945E-2,-3.0569945E-2,3.772677E-2,-1.4423366E-2,-3.0363217E-2,6.847447E-2,1.783801E-1,-1.0669331E-1,1.3559075E-2,2.9816175E-2,-2.5354046E-2,1.0385125E-2,2.9633392E-2,-3.1250544E-2],"categories":[],"categories_nodes":[],"categories_segments":[],"categories_sizes":[],"default_left":[0,0,0,0,0,0,0,0,0,0,0,0,0,0,0,0,0],"id":56,"left_children":[1,3,5,-1,-1,-1,7,-1,9,11,13,15,-1,-1,-1,-1,-1],"loss_changes":[1.1777653E-1,2.4381949E-1,2.5861907E-1,0E0,0E0,0E0,2.5966606E-1,0E0,1.838263E-1,1.0718706E-1,1.477099E-1,4.0783373E-1,0E0,0E0,0E0,0E0,0E0],"parents":[2147483647,0,0,1,1,2,2,6,6,8,8,9,9,10,10,11,11],"right_children":[2,4,6,-1,-1,-1,8,-1,10,12,14,16,-1,-1,-1,-1,-1],"split_conditions":[1.2489849E-1,1.2190156E-1,1.2766936E-1,1.3716945E-2,-3.0569945E-2,3.772677E-2,1.3356818E-1,-3.0363217E-2,2.0135546E-1,1.4167438E-1,4.4524345E-1,1.3571362E-1,2.9816175E-2,-2.5354046E-2,1.0385125E-2,2.9633392E-2,-3.1250544E-2],"split_indices":[4,4,4,0,0,0,4,0,4,4,4,4,0,0,0,0,0],"split_type":[0,0,0,0,0,0,0,0,0,0,0,0,0,0,0,0,0],"sum_hessian":[1.3383432E1,3.3623207E0,1.0021112E1,1.3545556E0,2.007765E0,1.0575186E0,8.9635935E0,1.4037056E0,7.559888E0,4.6340218E0,2.925866E0,2.418851E0,2.215171E0,1.6033647E0,1.3225012E0,1.3442495E0,1.0746013E0],"tree_param":{"num_deleted":"0","num_feature":"5","num_nodes":"17","size_leaf_vector":"1"}},{"base_weights":[2.589826E-3,-4.446625E-2,1.6848311E-1,3.0208772E-2,-2.0516399E-1,3.0303964E-2,-6.3351663E-3,-7.3884614E-2,2.4087055E-2,-3.1102756E-2,-2.279711E-4,1.1235925E-1,-2.368293E-1,-1.8752085E-2,3.1025613E-2,-3.4214567E-2,-5.645053E-3],"categories":[],"categories_nodes":[],"categories_segments":[],"categories_sizes":[],"default_left":[0,0,0,0,0,0,0,0,0,0,0,0,0,0,0,0,0],"id":57,"left_children":[1,3,5,7,9,-1,-1,11,-1,-1,-1,13,15,-1,-1,-1,-1],"loss_changes":[1.1976624E-1,1.5014617E-1,1.2485422E-1,2.1650153E-1,8.378777E-2,0E0,0E0,2.3388332E-1,0E0,0E0,0E0,2.875712E-1,5.600129E-2,0E0,0E0,0E0,0E0],"parents":[2147483647,0,0,1,1,2,2,3,3,4,4,7,7,11,11,12,12],"right_children":[2,4,6,8,10,-1,-1,12,-1,-1,-1,14,16,-1,-1,-1,-1],"split_conditions":[2.4931593E-1,1.4135927E-1,5.929306E-1,1.3356818E-1,1.6321245E-1,3.0303964E-2,-6.3351663E-3,1.23544194E-1,2.4087055E-2,-3.1102756E-2,-2.279711E-4,1.2129826E-1,1.2636681E-1,-1.8752085E-2,3.1025613E-2,-3.4214567E-2,-5.645053E-3],"split_indices":[4,4,4,4,4,0,0,4,0,0,0,4,4,0,0,0,0],"split_type":[0,0,0,0,0,0,0,0,0,0,0,0,0,0,0,0,0],"sum_hessian":[1.3382565E1,1.0995593E1,2.386971E0,8.061493E0,2.9341002E0,1.3160193E0,1.0709517E0,5.8300095E0,2.2314837E0,1.5777906E0,1.3563095E0,2.8653703E0,2.9646392E0,1.1600052E0,1.7053651E0,1.3055564E0,1.6590829E0],"tree_param":{"num_deleted":"0","num_feature":"5","num_nodes":"17","size_leaf_vector":"1"}},{"base_weights":[1.6231623E-3,-1.7243236E-2,4.4832867E-2,2.4463376E-2,-1.27471285E-2,-3.0790016E-2,5.2052174E-2,2.7279189E-2,-2.3948751E-2,-2.4744913E-2,8.373144E-2,2.9270737E-2,-1.0837075E-2],"categories":[],"categories_nodes":[],"categories_segments":[],"categories_sizes":[],"default_left":[0,0,0,0,0,0,0,0,0,0,0,0,0],"id":58,"left_children":[1,-1,3,-1,5,-1,7,-1,9,-1,11,-1,-1],"loss_changes":[1.1564577E-1,0E0,1.4449413E-1,0E0,2.1665566E-1,0E0,1.6518706E-1,0E0,2.1214834E-1,0E0,2.772103E-1,0E0,0E0],"parents":[2147483647,0,0,2,2,4,4,6,6,8,8,10,10],"right_children":[2,-1,4,-1,6,-1,8,-1,10,-1,12,-1,-1],"split_conditions":[1.2272917E-1,-1.7243236E-2,1.2588924E-1,2.4463376E-2,1.2834273E-1,-3.0790016E-2,1.3474385E-1,2.7279189E-2,1.4167438E-1,-2.4744913E-2,2.0135546E-1,2.9270737E-2,-1.0837075E-2],"split_indices":[4,0,4,0,4,0,4,0,4,0,4,0,0],"split_type":[0,0,0,0,0,0,0,0,0,0,0,0,0],"sum_hessian":[1.3348722E1,2.0600245E0,1.1288698E1,1.7986938E0,9.490005E0,1.0330391E0,8.456965E0,1.5028148E0,6.9541507E0,1.8390431E0,5.1151075E0,2.1991181E0,2.9159892E0],"tree_param":{"num_deleted":"0","num_feature":"5","num_nodes":"13","size_leaf_vector":"1"}}]},"name":"gbtree"},"learner_model_param":{"base_score":"6.122449E-1","boost_from_average":"1","num_class":"0","num_feature":"5","num_target":"1"},"objective":{"name":"binary:logistic","reg_loss_param":{"scale_pos_weight":"1"}}},"version":[3,0,0]}